<?xml version="1.0"?>
<opencv_storage>
<opencv_ml_svm>
  <format>3</format>
  <svmType>C_SVC</svmType>
  <kernel>
    <type>RBF</type>
    <gamma>1.</gamma></kernel>
  <C>1.</C>
  <term_criteria><epsilon>1.1920928955078125e-07</epsilon>
    <iterations>1000</iterations></term_criteria>
  <var_count>9</var_count>
  <class_count>2</class_count>
  <class_labels type_id="opencv-matrix">
    <rows>2</rows>
    <cols>1</cols>
    <dt>i</dt>
    <data>
      0 1</data></class_labels>
  <sv_total>1895</sv_total>
  <support_vectors>
    <_>
      0. 6. 0. 0. 0. 0. 0. 0. 0.</_>
    <_>
      0. 0. 0. 0. 0. 0. 0. 0. 0.</_>
    <_>
      0. 48. 0. 0. 0. 0. 0. 0. 0.</_>
    <_>
      0. 0. 0. 0. 0. 0. 0. 0. 0.</_>
    <_>
      5.00000000e-01 3.41421366e+00 2.22222224e-01 1.23456791e-02
      5.48696658e-03 2.19480411e-04 -2.40857304e-07 -2.43867125e-05
      -1.41111938e-12</_>
    <_>
      63745. 1532. 6.00394785e-01 3.32696140e-01 8.71196761e-31
      9.26029811e-31 0. 5.31640172e-31 0.</_>
    <_>
      69065. 1644. 6.48608804e-01 3.92915606e-01 0. 0. 0. 0. 0.</_>
    <_>
      0. 0. 0. 0. 0. 0. 0. 0. 0.</_>
    <_>
      0. 4. 0. 0. 0. 0. 0. 0. 0.</_>
    <_>
      77910. 1682. 5.89848340e-01 3.20143282e-01 0. 0. 0. 0. 0.</_>
    <_>
      0. 0. 0. 0. 0. 0. 0. 0. 0.</_>
    <_>
      0. 0. 0. 0. 0. 0. 0. 0. 0.</_>
    <_>
      0. 0. 0. 0. 0. 0. 0. 0. 0.</_>
    <_>
      0. 0. 0. 0. 0. 0. 0. 0. 0.</_>
    <_>
      6.76325000e+04 1.72115430e+03 6.36106551e-01 3.76698971e-01
      3.97486957e-07 4.70572928e-07 1.98916540e-13 2.56077499e-07
      -4.30301750e-14</_>
    <_>
      65065. 1612. 6.65367961e-01 4.14936751e-01 8.42953300e-31
      8.29475928e-31 0. 5.27555376e-31 0.</_>
    <_>
      4.50000000e+00 9.07106781e+00 2.27099523e-01 2.46931929e-02
      6.39540085e-05 3.76801449e-06 5.84928425e-11 5.92108336e-07
      -2.12077955e-19</_>
    <_>
      0. 4. 0. 0. 0. 0. 0. 0. 0.</_>
    <_>
      0. 18. 0. 0. 0. 0. 0. 0. 0.</_>
    <_>
      0. 4. 0. 0. 0. 0. 0. 0. 0.</_>
    <_>
      0. 18. 0. 0. 0. 0. 0. 0. 0.</_>
    <_>
      0. 2. 0. 0. 0. 0. 0. 0. 0.</_>
    <_>
      0. 2. 0. 0. 0. 0. 0. 0. 0.</_>
    <_>
      1.10500000e+02 6.35563507e+01 3.56290638e-01 7.57078752e-02
      3.48825492e-02 1.60274766e-02 3.74839845e-04 4.15300252e-03
      5.57799540e-05</_>
    <_>
      0. 4. 0. 0. 0. 0. 0. 0. 0.</_>
    <_>
      0. 0. 0. 0. 0. 0. 0. 0. 0.</_>
    <_>
      0. 0. 0. 0. 0. 0. 0. 0. 0.</_>
    <_>
      0. 2. 0. 0. 0. 0. 0. 0. 0.</_>
    <_>
      0. 0. 0. 0. 0. 0. 0. 0. 0.</_>
    <_>
      65100. 1586. 6.38311565e-01 3.79663885e-01 0. 0. 0. 0. 0.</_>
    <_>
      0. 76. 0. 0. 0. 0. 0. 0. 0.</_>
    <_>
      0. 16. 0. 0. 0. 0. 0. 0. 0.</_>
    <_>
      0. 12. 0. 0. 0. 0. 0. 0. 0.</_>
    <_>
      0. 0. 0. 0. 0. 0. 0. 0. 0.</_>
    <_>
      0. 0. 0. 0. 0. 0. 0. 0. 0.</_>
    <_>
      1.08500000e+02 7.00416336e+01 2.07089260e-01 5.17842174e-03
      2.03908747e-03 1.58613431e-03 2.70587702e-06 9.62004124e-05
      -9.02811962e-07</_>
    <_>
      0. 2. 0. 0. 0. 0. 0. 0. 0.</_>
    <_>
      1. 4. 1.66666672e-01 2.06795153e-23 1.04397605e-17 1.51375227e-17
      1.89904901e-34 -6.88138922e-29 -1.21793498e-35</_>
    <_>
      0. 0. 0. 0. 0. 0. 0. 0. 0.</_>
    <_>
      68483. 1.66042639e+03 6.06237113e-01 3.39652896e-01 1.57707149e-07
      1.90409381e-07 3.23250609e-14 9.97288510e-08 -6.61899285e-15</_>
    <_>
      60264. 1482. 5.92605054e-01 3.23402941e-01 0. 0. 0. 0. 0.</_>
    <_>
      0. 6. 0. 0. 0. 0. 0. 0. 0.</_>
    <_>
      0. 0. 0. 0. 0. 0. 0. 0. 0.</_>
    <_>
      0. 0. 0. 0. 0. 0. 0. 0. 0.</_>
    <_>
      0. 2. 0. 0. 0. 0. 0. 0. 0.</_>
    <_>
      0. 0. 0. 0. 0. 0. 0. 0. 0.</_>
    <_>
      0. 0. 0. 0. 0. 0. 0. 0. 0.</_>
    <_>
      77592. 1676. 5.87539077e-01 3.17424417e-01 0. 0. 0. 0. 0.</_>
    <_>
      0. 0. 0. 0. 0. 0. 0. 0. 0.</_>
    <_>
      0. 0. 0. 0. 0. 0. 0. 0. 0.</_>
    <_>
      1.50000000e+00 5.41421366e+00 2.05761313e-01 1.26166400e-02
      1.57586776e-03 2.77663232e-04 1.70442519e-07 2.81789507e-05
      6.84390216e-08</_>
    <_>
      70907. 1656. 6.39064789e-01 3.80626023e-01 1.89972377e-32
      2.11080417e-33 0. -1.26218899e-33 0.</_>
    <_>
      0. 0. 0. 0. 0. 0. 0. 0. 0.</_>
    <_>
      71811. 1624. 5.98471463e-01 3.30390304e-01 0. 0. 0. 0. 0.</_>
    <_>
      0. 16. 0. 0. 0. 0. 0. 0. 0.</_>
    <_>
      0. 2. 0. 0. 0. 0. 0. 0. 0.</_>
    <_>
      3.35000000e+01 3.47279205e+01 4.98781055e-01 1.93182454e-01
      9.86405648e-03 5.29118674e-03 3.80506717e-05 2.18797033e-03
      -3.65563506e-06</_>
    <_>
      90440. 1758. 5.45261145e-01 2.69531935e-01 6.11190718e-31
      6.68449235e-31 0. 3.38634649e-31 0.</_>
    <_>
      0. 0. 0. 0. 0. 0. 0. 0. 0.</_>
    <_>
      0. 2. 0. 0. 0. 0. 0. 0. 0.</_>
    <_>
      0. 0. 0. 0. 0. 0. 0. 0. 0.</_>
    <_>
      0. 0. 0. 0. 0. 0. 0. 0. 0.</_>
    <_>
      0. 0. 0. 0. 0. 0. 0. 0. 0.</_>
    <_>
      0. 0. 0. 0. 0. 0. 0. 0. 0.</_>
    <_>
      70100. 1602. 5.96054435e-01 3.27503115e-01 2.01161996e-32
      2.23513326e-33 0. -1.23976202e-33 0.</_>
    <_>
      1. 4.82842731e+00 2.50000000e-01 3.47222239e-02 3.50523939e-15
      3.58942959e-15 1.27320114e-29 -3.44120767e-16 -4.68862746e-33</_>
    <_>
      1. 1.28284273e+01 2.22222224e-01 1.23456791e-02 5.48696797e-03
      2.19478708e-04 -2.40854519e-07 -2.43865234e-05 6.63418756e-13</_>
    <_>
      0. 0. 0. 0. 0. 0. 0. 0. 0.</_>
    <_>
      0. 0. 0. 0. 0. 0. 0. 0. 0.</_>
    <_>
      0. 0. 0. 0. 0. 0. 0. 0. 0.</_>
    <_>
      0. 2.82842708e+00 0. 0. 0. 0. 0. 0. 0.</_>
    <_>
      0. 4. 0. 0. 0. 0. 0. 0. 0.</_>
    <_>
      0. 6. 0. 0. 0. 0. 0. 0. 0.</_>
    <_>
      0. 0. 0. 0. 0. 0. 0. 0. 0.</_>
    <_>
      0. 2. 0. 0. 0. 0. 0. 0. 0.</_>
    <_>
      196. 3.90627411e+02 8.92218208e+00 7.95611496e+01 1.57082550e+02
      1.56907898e+02 2.46337871e+04 1.39954102e+03 -2.07676366e-02</_>
    <_>
      1. 4. 1.66666672e-01 3.30872245e-22 8.50025832e-16 9.14179472e-16
      8.05240149e-31 -1.64646149e-26 -3.17743294e-32</_>
    <_>
      0. 0. 0. 0. 0. 0. 0. 0. 0.</_>
    <_>
      71932. 1664. 6.35275900e-01 3.75797689e-01 5.21762869e-31
      5.03809073e-31 0. 3.03056526e-31 0.</_>
    <_>
      68799. 1.57682837e+03 5.85454285e-01 3.14978898e-01 1.78960416e-10
      1.52646770e-10 2.52295337e-20 8.56638233e-11 4.44289554e-23</_>
    <_>
      72720. 1642. 6.05749249e-01 3.39154333e-01 0. 0. 0. 0. 0.</_>
    <_>
      67706. 1590. 6.11237049e-01 3.45832974e-01 6.40713446e-31
      6.80970272e-31 0. 4.00269556e-31 0.</_>
    <_>
      0. 26. 0. 0. 0. 0. 0. 0. 0.</_>
    <_>
      5.00000000e-01 5.41421366e+00 2.22222224e-01 1.23456791e-02
      5.48696844e-03 2.19478752e-04 -2.40854604e-07 -2.43865288e-05
      -3.49394586e-14</_>
    <_>
      0. 2. 0. 0. 0. 0. 0. 0. 0.</_>
    <_>
      0. 20. 0. 0. 0. 0. 0. 0. 0.</_>
    <_>
      0. 0. 0. 0. 0. 0. 0. 0. 0.</_>
    <_>
      0. 0. 0. 0. 0. 0. 0. 0. 0.</_>
    <_>
      0. 0. 0. 0. 0. 0. 0. 0. 0.</_>
    <_>
      71407. 1616. 5.95238090e-01 3.26530606e-01 5.41227551e-31
      5.22604006e-31 0. 2.93032145e-31 0.</_>
    <_>
      0. 4. 0. 0. 0. 0. 0. 0. 0.</_>
    <_>
      0. 2. 0. 0. 0. 0. 0. 0. 0.</_>
    <_>
      63427. 1576. 6.49158359e-01 3.93628776e-01 9.57568419e-31
      9.42258498e-31 0. 5.83696187e-31 0.</_>
    <_>
      70992. 1596. 5.80840111e-01 3.09597433e-01 0. 0. 0. 0. 0.</_>
    <_>
      83032. 1766. 6.15851939e-01 3.51495802e-01 9.88551252e-31
      9.74363036e-31 0. 5.72910274e-31 0.</_>
    <_>
      0. 2. 0. 0. 0. 0. 0. 0. 0.</_>
    <_>
      85026. 1754. 5.87150812e-01 3.16968262e-01 0. 0. 0. 0. 0.</_>
    <_>
      0. 4. 0. 0. 0. 0. 0. 0. 0.</_>
    <_>
      5.00000000e-01 3.41421366e+00 2.22222224e-01 1.23456791e-02
      5.48697030e-03 2.19478985e-04 -2.40855030e-07 -2.43865543e-05
      4.52484567e-13</_>
    <_>
      0. 0. 0. 0. 0. 0. 0. 0. 0.</_>
    <_>
      0. 2. 0. 0. 0. 0. 0. 0. 0.</_>
    <_>
      0. 0. 0. 0. 0. 0. 0. 0. 0.</_>
    <_>
      0. 0. 0. 0. 0. 0. 0. 0. 0.</_>
    <_>
      0. 0. 0. 0. 0. 0. 0. 0. 0.</_>
    <_>
      0. 0. 0. 0. 0. 0. 0. 0. 0.</_>
    <_>
      0. 0. 0. 0. 0. 0. 0. 0. 0.</_>
    <_>
      85248. 1758. 5.88620842e-01 3.18696737e-01 0. 0. 0. 0. 0.</_>
    <_>
      0. 0. 0. 0. 0. 0. 0. 0. 0.</_>
    <_>
      84299. 1.70862744e+03 5.26741982e-01 2.49665767e-01 2.06547366e-08
      3.43240991e-09 1.16690973e-17 -3.60330044e-10 -2.64401864e-17</_>
    <_>
      71800. 1636. 6.09939635e-01 3.44248593e-01 4.69290024e-31
      5.12178734e-31 0. 2.99784255e-31 0.</_>
    <_>
      66720. 1582. 6.14809394e-01 3.50212812e-01 0. 0. 0. 0. 0.</_>
    <_>
      10. 1.88284264e+01 5.11111140e-01 2.20286414e-01 2.77921222e-02
      1.84830986e-02 4.18520503e-04 8.60899221e-03 1.81125542e-05</_>
    <_>
      0. 4. 0. 0. 0. 0. 0. 0. 0.</_>
    <_>
      0. 4. 0. 0. 0. 0. 0. 0. 0.</_>
    <_>
      0. 2. 0. 0. 0. 0. 0. 0. 0.</_>
    <_>
      0. 4. 0. 0. 0. 0. 0. 0. 0.</_>
    <_>
      0. 0. 0. 0. 0. 0. 0. 0. 0.</_>
    <_>
      1. 4. 1.66666672e-01 3.64786650e-22 8.48571212e-16 9.06350135e-16
      7.94799785e-31 -1.72563431e-26 -9.40329139e-33</_>
    <_>
      7.15435000e+04 1.74515430e+03 6.08543634e-01 3.42359662e-01
      6.52491508e-07 8.63433058e-07 6.35633202e-13 4.65074663e-07
      1.26418529e-13</_>
    <_>
      0. 14. 0. 0. 0. 0. 0. 0. 0.</_>
    <_>
      0. 0. 0. 0. 0. 0. 0. 0. 0.</_>
    <_>
      0. 26. 0. 0. 0. 0. 0. 0. 0.</_>
    <_>
      0. 0. 0. 0. 0. 0. 0. 0. 0.</_>
    <_>
      0. 2. 0. 0. 0. 0. 0. 0. 0.</_>
    <_>
      0. 0. 0. 0. 0. 0. 0. 0. 0.</_>
    <_>
      1. 4. 1.66666672e-01 1.32348898e-23 5.02097639e-18 1.80910918e-17
      1.64871336e-34 -6.38732860e-29 -5.04638003e-35</_>
    <_>
      0. 10. 0. 0. 0. 0. 0. 0. 0.</_>
    <_>
      0. 6. 0. 0. 0. 0. 0. 0. 0.</_>
    <_>
      0. 2. 0. 0. 0. 0. 0. 0. 0.</_>
    <_>
      64765. 1.69111267e+03 6.63063645e-01 4.11722779e-01 4.03750448e-07
      7.99718293e-07 4.54101166e-13 5.12387828e-07 -1.71480905e-14</_>
    <_>
      60870. 1.61125488e+03 6.37641549e-01 3.78693849e-01 4.25937934e-08
      1.83260923e-07 1.61902487e-14 1.12773201e-07 -1.71739861e-16</_>
    <_>
      0. 2. 0. 0. 0. 0. 0. 0. 0.</_>
    <_>
      0. 2. 0. 0. 0. 0. 0. 0. 0.</_>
    <_>
      63902. 1614. 6.82614267e-01 4.38184440e-01 8.81032170e-31
      9.07662853e-31 0. 5.98006937e-31 0.</_>
    <_>
      0. 2. 0. 0. 0. 0. 0. 0. 0.</_>
    <_>
      0. 0. 0. 0. 0. 0. 0. 0. 0.</_>
    <_>
      0. 2. 0. 0. 0. 0. 0. 0. 0.</_>
    <_>
      0. 0. 0. 0. 0. 0. 0. 0. 0.</_>
    <_>
      0. 0. 0. 0. 0. 0. 0. 0. 0.</_>
    <_>
      15. 1.96568546e+01 2.63744861e-01 3.17096785e-02 1.84162962e-03
      3.05370108e-04 -1.12426974e-07 -3.06135080e-05 1.99505607e-07</_>
    <_>
      2.45000000e+01 3.30710678e+01 3.60520601e-01 8.48911405e-02
      2.78283972e-02 1.35921407e-02 2.63100432e-04 3.84263857e-03
      2.56510175e-05</_>
    <_>
      0. 6. 0. 0. 0. 0. 0. 0. 0.</_>
    <_>
      0. 0. 0. 0. 0. 0. 0. 0. 0.</_>
    <_>
      0. 4. 0. 0. 0. 0. 0. 0. 0.</_>
    <_>
      73100. 1662. 6.20566547e-01 3.57325107e-01 1.63135738e-32
      1.81261945e-33 0. -1.05018445e-33 0.</_>
    <_>
      2. 6. 2.08333328e-01 1.56250000e-02 4.27868158e-16 4.49567766e-16
      1.97171545e-31 5.61959443e-17 -7.91864055e-34</_>
    <_>
      0. 0. 0. 0. 0. 0. 0. 0. 0.</_>
    <_>
      0. 0. 0. 0. 0. 0. 0. 0. 0.</_>
    <_>
      0. 2. 0. 0. 0. 0. 0. 0. 0.</_>
    <_>
      0. 2. 0. 0. 0. 0. 0. 0. 0.</_>
    <_>
      0. 4. 0. 0. 0. 0. 0. 0. 0.</_>
    <_>
      0. 0. 0. 0. 0. 0. 0. 0. 0.</_>
    <_>
      0. 0. 0. 0. 0. 0. 0. 0. 0.</_>
    <_>
      0. 0. 0. 0. 0. 0. 0. 0. 0.</_>
    <_>
      0. 2. 0. 0. 0. 0. 0. 0. 0.</_>
    <_>
      0. 6. 0. 0. 0. 0. 0. 0. 0.</_>
    <_>
      66229. 1.65594116e+03 6.35998905e-01 3.76692891e-01 1.52052530e-06
      2.77572809e-07 7.11585196e-14 -1.19952359e-08 -1.65694024e-13</_>
    <_>
      60987. 1576. 6.81798279e-01 4.37071145e-01 0. 0. 0. 0. 0.</_>
    <_>
      0. 0. 0. 0. 0. 0. 0. 0. 0.</_>
    <_>
      0. 126. 0. 0. 0. 0. 0. 0. 0.</_>
    <_>
      0. 8. 0. 0. 0. 0. 0. 0. 0.</_>
    <_>
      0. 2. 0. 0. 0. 0. 0. 0. 0.</_>
    <_>
      0. 0. 0. 0. 0. 0. 0. 0. 0.</_>
    <_>
      74881. 1660. 5.99994242e-01 3.32215279e-01 3.80369213e-31
      4.15131425e-31 0. 2.38696800e-31 0.</_>
    <_>
      0. 2. 0. 0. 0. 0. 0. 0. 0.</_>
    <_>
      63. 3.44852829e+01 2.06082255e-01 1.55981109e-02 1.98648559e-04
      3.29103386e-05 2.62089261e-09 3.77664537e-06 4.60135013e-10</_>
    <_>
      0. 126. 0. 0. 0. 0. 0. 0. 0.</_>
    <_>
      0. 0. 0. 0. 0. 0. 0. 0. 0.</_>
    <_>
      59241. 1460. 5.82954943e-01 3.12058687e-01 0. 0. 0. 0. 0.</_>
    <_>
      0. 0. 0. 0. 0. 0. 0. 0. 0.</_>
    <_>
      67027. 1576. 6.05340660e-01 3.38659495e-01 6.93687099e-31
      7.26300861e-31 0. 4.17145799e-31 0.</_>
    <_>
      0. 0. 0. 0. 0. 0. 0. 0. 0.</_>
    <_>
      0. 4. 0. 0. 0. 0. 0. 0. 0.</_>
    <_>
      0. 6. 0. 0. 0. 0. 0. 0. 0.</_>
    <_>
      0. 4. 0. 0. 0. 0. 0. 0. 0.</_>
    <_>
      0. 0. 0. 0. 0. 0. 0. 0. 0.</_>
    <_>
      0. 6. 0. 0. 0. 0. 0. 0. 0.</_>
    <_>
      0. 8. 0. 0. 0. 0. 0. 0. 0.</_>
    <_>
      71442. 1654. 6.31100535e-01 3.70510101e-01 0. 0. 0. 0. 0.</_>
    <_>
      5. 8.82842731e+00 1.83333337e-01 7.61111127e-03 1.65957246e-16
      1.63958844e-16 2.70458328e-32 1.11198047e-17 -1.27795464e-35</_>
    <_>
      0. 2. 0. 0. 0. 0. 0. 0. 0.</_>
    <_>
      0. 0. 0. 0. 0. 0. 0. 0. 0.</_>
    <_>
      11. 2.56568546e+01 2.78508216e-01 3.49747911e-02 1.08251274e-02
      1.71971321e-03 5.70041630e-06 2.04439260e-04 4.74982107e-06</_>
    <_>
      0. 14. 0. 0. 0. 0. 0. 0. 0.</_>
    <_>
      0. 4. 0. 0. 0. 0. 0. 0. 0.</_>
    <_>
      0. 6. 0. 0. 0. 0. 0. 0. 0.</_>
    <_>
      0. 28. 0. 0. 0. 0. 0. 0. 0.</_>
    <_>
      5.00000000e-01 3.41421366e+00 2.22222224e-01 1.23456791e-02
      5.48697170e-03 2.19478898e-04 -2.40854916e-07 -2.43865452e-05
      -6.16623885e-13</_>
    <_>
      0. 2. 0. 0. 0. 0. 0. 0. 0.</_>
    <_>
      0. 8. 0. 0. 0. 0. 0. 0. 0.</_>
    <_>
      0. 14. 0. 0. 0. 0. 0. 0. 0.</_>
    <_>
      0. 4. 0. 0. 0. 0. 0. 0. 0.</_>
    <_>
      87399. 1728. 5.45103490e-01 2.69360036e-01 0. 0. 0. 0. 0.</_>
    <_>
      84810. 1762. 5.95980227e-01 3.27414662e-01 0. 0. 0. 0. 0.</_>
    <_>
      0. 0. 0. 0. 0. 0. 0. 0. 0.</_>
    <_>
      0. 2. 0. 0. 0. 0. 0. 0. 0.</_>
    <_>
      7.08505000e+04 1.69052686e+03 6.02485120e-01 3.35103244e-01
      3.39262911e-08 1.55229856e-07 1.12574829e-14 8.98422456e-08
      -4.11373753e-16</_>
    <_>
      0. 0. 0. 0. 0. 0. 0. 0. 0.</_>
    <_>
      1. 1.28284273e+01 2.22222224e-01 1.23456791e-02 5.48696704e-03
      2.19478665e-04 -2.40854433e-07 -2.43865179e-05 -6.36377452e-13</_>
    <_>
      1. 4. 1.66666672e-01 2.06795153e-23 1.08333827e-17 1.50446038e-17
      1.90897860e-34 -6.79522311e-29 -2.11615730e-35</_>
    <_>
      0. 0. 0. 0. 0. 0. 0. 0. 0.</_>
    <_>
      0. 0. 0. 0. 0. 0. 0. 0. 0.</_>
    <_>
      0. 0. 0. 0. 0. 0. 0. 0. 0.</_>
    <_>
      0. 0. 0. 0. 0. 0. 0. 0. 0.</_>
    <_>
      0. 0. 0. 0. 0. 0. 0. 0. 0.</_>
    <_>
      70952. 1644. 6.26926184e-01 3.65258664e-01 0. 0. 0. 0. 0.</_>
    <_>
      0. 0. 0. 0. 0. 0. 0. 0. 0.</_>
    <_>
      1.50000000e+00 9.41421318e+00 2.05761313e-01 1.26166400e-02
      1.57586718e-03 2.77662126e-04 1.70441595e-07 2.81788489e-05
      6.84382186e-08</_>
    <_>
      0. 0. 0. 0. 0. 0. 0. 0. 0.</_>
    <_>
      0. 0. 0. 0. 0. 0. 0. 0. 0.</_>
    <_>
      0. 2. 0. 0. 0. 0. 0. 0. 0.</_>
    <_>
      0. 6. 0. 0. 0. 0. 0. 0. 0.</_>
    <_>
      0. 0. 0. 0. 0. 0. 0. 0. 0.</_>
    <_>
      68706. 1586. 5.96062720e-01 3.27512950e-01 0. 0. 0. 0. 0.</_>
    <_>
      63368. 1602. 6.77083313e-01 4.30664062e-01 9.18785287e-31
      9.46557140e-31 0. 6.18257413e-31 0.</_>
    <_>
      64428. 1598. 6.59062564e-01 4.06585693e-01 0. 0. 0. 0. 0.</_>
    <_>
      5. 8.82842731e+00 1.83333337e-01 7.61111127e-03 4.98893316e-27
      6.13147627e-28 0. -5.32807737e-29 0.</_>
    <_>
      0. 0. 0. 0. 0. 0. 0. 0. 0.</_>
    <_>
      0. 2.82842708e+00 0. 0. 0. 0. 0. 0. 0.</_>
    <_>
      0. 0. 0. 0. 0. 0. 0. 0. 0.</_>
    <_>
      69120. 1632. 6.36111140e-01 3.76859576e-01 0. 0. 0. 0. 0.</_>
    <_>
      21. 2.13137093e+01 2.37558335e-01 2.61749029e-02 6.41811988e-04
      1.58665338e-04 4.74748205e-08 2.21414193e-05 -1.76001080e-08</_>
    <_>
      70228. 1642. 6.33157969e-01 3.73111218e-01 5.24218100e-31
      5.72126783e-31 0. 3.48628279e-31 0.</_>
    <_>
      5.50000000e+00 1.02426405e+01 2.00517565e-01 1.15816742e-02
      6.43822015e-04 8.95963894e-05 1.48955666e-08 1.25019187e-06
      1.55300430e-08</_>
    <_>
      0. 4. 0. 0. 0. 0. 0. 0. 0.</_>
    <_>
      71973. 1652. 6.23300850e-01 3.60726207e-01 0. 0. 0. 0. 0.</_>
    <_>
      0. 0. 0. 0. 0. 0. 0. 0. 0.</_>
    <_>
      3.15000000e+01 2.38994942e+01 1.93409860e-01 1.01055615e-02
      4.05588973e-04 4.31455919e-05 4.95051511e-09 3.38247173e-06
      2.84046320e-09</_>
    <_>
      0. 0. 0. 0. 0. 0. 0. 0. 0.</_>
    <_>
      0. 0. 0. 0. 0. 0. 0. 0. 0.</_>
    <_>
      0. 2. 0. 0. 0. 0. 0. 0. 0.</_>
    <_>
      72324. 1672. 6.38616979e-01 3.80053848e-01 0. 0. 0. 0. 0.</_>
    <_>
      0. 10. 0. 0. 0. 0. 0. 0. 0.</_>
    <_>
      0. 6. 0. 0. 0. 0. 0. 0. 0.</_>
    <_>
      1.45500000e+02 1.43071060e+02 1.88201010e+00 3.51056886e+00
      9.67358768e-01 9.50615644e-01 9.11593437e-01 1.78002310e+00
      3.04663263e-04</_>
    <_>
      0. 0. 0. 0. 0. 0. 0. 0. 0.</_>
    <_>
      71082. 1634. 6.15867376e-01 3.51514816e-01 0. 0. 0. 0. 0.</_>
    <_>
      0. 6. 0. 0. 0. 0. 0. 0. 0.</_>
    <_>
      70290. 1618. 6.09262824e-01 3.43423396e-01 0. 0. 0. 0. 0.</_>
    <_>
      62100. 1560. 6.49758458e-01 3.94408286e-01 9.11124643e-33
      1.01236071e-33 0. -6.30834370e-34 0.</_>
    <_>
      0. 0. 0. 0. 0. 0. 0. 0. 0.</_>
    <_>
      0. 8. 0. 0. 0. 0. 0. 0. 0.</_>
    <_>
      68256. 1614. 6.28439248e-01 3.67158115e-01 0. 0. 0. 0. 0.</_>
    <_>
      0. 0. 0. 0. 0. 0. 0. 0. 0.</_>
    <_>
      73300. 1666. 6.22202158e-01 3.59357715e-01 4.23198044e-31
      4.61874394e-31 0. 2.76209481e-31 0.</_>
    <_>
      0. 0. 0. 0. 0. 0. 0. 0. 0.</_>
    <_>
      0. 0. 0. 0. 0. 0. 0. 0. 0.</_>
    <_>
      69870. 1574. 5.72049260e-01 2.99462616e-01 0. 0. 0. 0. 0.</_>
    <_>
      0. 4. 0. 0. 0. 0. 0. 0. 0.</_>
    <_>
      0. 0. 0. 0. 0. 0. 0. 0. 0.</_>
    <_>
      0. 0. 0. 0. 0. 0. 0. 0. 0.</_>
    <_>
      70686. 1626. 6.12564743e-01 3.47457767e-01 0. 0. 0. 0. 0.</_>
    <_>
      0. 8. 0. 0. 0. 0. 0. 0. 0.</_>
    <_>
      4.12500000e+02 4.06953308e+02 6.21147823e+00 3.85303040e+01
      3.47173347e+01 3.46007309e+01 1.19922607e+03 2.14767014e+02
      -7.78999925e-02</_>
    <_>
      76860. 1674. 5.92905939e-01 3.23759675e-01 0. 0. 0. 0. 0.</_>
    <_>
      0. 10. 0. 0. 0. 0. 0. 0. 0.</_>
    <_>
      0. 4. 0. 0. 0. 0. 0. 0. 0.</_>
    <_>
      0. 2. 0. 0. 0. 0. 0. 0. 0.</_>
    <_>
      3. 8. 2.77777791e-01 4.93827164e-02 0. 0. 0. 0. 0.</_>
    <_>
      2. 6. 2.08333328e-01 1.56250000e-02 1.48394392e-20 3.26831726e-20
      6.41536858e-40 -3.91996046e-21 -3.26346998e-40</_>
    <_>
      0. 0. 0. 0. 0. 0. 0. 0. 0.</_>
    <_>
      63700. 1582. 6.51858985e-01 3.97142351e-01 9.37224279e-31
      9.22239641e-31 0. 5.73839196e-31 0.</_>
    <_>
      64440. 1612. 6.73437834e-01 4.25740719e-01 0. 0. 0. 0. 0.</_>
    <_>
      0. 0. 0. 0. 0. 0. 0. 0. 0.</_>
    <_>
      2. 1.48284273e+01 2.46527776e-01 2.89472416e-02 3.42416461e-03
      2.59941124e-04 -2.45239164e-07 -4.42260971e-05 -1.12589293e-13</_>
    <_>
      46. 5.64264069e+01 8.03929746e-01 6.04736924e-01 2.70211678e-02
      7.59543898e-03 8.50018332e-05 2.07188656e-03 -6.79337172e-05</_>
    <_>
      0. 6. 0. 0. 0. 0. 0. 0. 0.</_>
    <_>
      71956. 1.71008325e+03 6.00136876e-01 3.32251966e-01 6.28142914e-07
      4.76216627e-07 2.59837995e-13 2.19683656e-07 -1.79466800e-14</_>
    <_>
      0. 0. 0. 0. 0. 0. 0. 0. 0.</_>
    <_>
      0. 2. 0. 0. 0. 0. 0. 0. 0.</_>
    <_>
      5.00000000e-01 3.41421366e+00 2.22222224e-01 1.23456791e-02
      5.48696751e-03 2.19478708e-04 -2.40854519e-07 -2.43865234e-05
      -1.80818441e-13</_>
    <_>
      31. 2.64852810e+01 2.24248379e-01 1.93455908e-02 1.92586577e-03
      1.45021564e-04 -7.66411290e-08 -2.01708226e-05 -1.52746870e-15</_>
    <_>
      1. 4.82842731e+00 2.22222224e-01 1.23456791e-02 5.48696751e-03
      2.19478665e-04 -2.40854433e-07 -2.43865179e-05 4.08148423e-13</_>
    <_>
      0. 0. 0. 0. 0. 0. 0. 0. 0.</_>
    <_>
      72518. 1638. 6.04131639e-01 3.37197244e-01 0. 0. 0. 0. 0.</_>
    <_>
      0. 0. 0. 0. 0. 0. 0. 0. 0.</_>
    <_>
      0. 2. 0. 0. 0. 0. 0. 0. 0.</_>
    <_>
      0. 2. 0. 0. 0. 0. 0. 0. 0.</_>
    <_>
      70498. 1598. 5.87965846e-01 3.17926079e-01 5.89792677e-31
      5.52889348e-31 0. 3.05856389e-31 0.</_>
    <_>
      0. 2. 0. 0. 0. 0. 0. 0. 0.</_>
    <_>
      0. 0. 0. 0. 0. 0. 0. 0. 0.</_>
    <_>
      1. 4. 1.66666672e-01 3.30872245e-22 7.16115323e-16 9.51414511e-16
      7.84754151e-31 -1.72725717e-26 -2.97814932e-32</_>
    <_>
      60060. 1502. 6.15885496e-01 3.51537168e-01 0. 0. 0. 0. 0.</_>
    <_>
      0. 6. 0. 0. 0. 0. 0. 0. 0.</_>
    <_>
      7.50000000e+00 1.74142132e+01 6.41646087e-01 3.83849800e-01
      2.90381402e-04 8.22514339e-05 1.01346753e-08 2.08234469e-05
      7.67285346e-09</_>
    <_>
      0. 0. 0. 0. 0. 0. 0. 0. 0.</_>
    <_>
      1.05000000e+01 1.82426414e+01 4.29879189e-01 1.48433924e-01
      1.85404345e-02 1.21036908e-02 1.81312498e-04 4.63435519e-03
      -1.16420517e-06</_>
    <_>
      0. 2. 0. 0. 0. 0. 0. 0. 0.</_>
    <_>
      0. 0. 0. 0. 0. 0. 0. 0. 0.</_>
    <_>
      0. 36. 0. 0. 0. 0. 0. 0. 0.</_>
    <_>
      0. 2. 0. 0. 0. 0. 0. 0. 0.</_>
    <_>
      66445. 1564. 6.00288451e-01 3.32568467e-01 7.24604481e-31
      7.58671765e-31 0. 4.31801487e-31 0.</_>
    <_>
      0. 2. 0. 0. 0. 0. 0. 0. 0.</_>
    <_>
      0. 0. 0. 0. 0. 0. 0. 0. 0.</_>
    <_>
      0. 2. 0. 0. 0. 0. 0. 0. 0.</_>
    <_>
      0. 0. 0. 0. 0. 0. 0. 0. 0.</_>
    <_>
      75810. 1654. 5.85134983e-01 3.14605176e-01 0. 0. 0. 0. 0.</_>
    <_>
      0. 6. 0. 0. 0. 0. 0. 0. 0.</_>
    <_>
      0. 2. 0. 0. 0. 0. 0. 0. 0.</_>
    <_>
      0. 2. 0. 0. 0. 0. 0. 0. 0.</_>
    <_>
      0. 2. 0. 0. 0. 0. 0. 0. 0.</_>
    <_>
      0. 4. 0. 0. 0. 0. 0. 0. 0.</_>
    <_>
      0. 0. 0. 0. 0. 0. 0. 0. 0.</_>
    <_>
      66120. 1582. 6.21900856e-01 3.58982861e-01 0. 0. 0. 0. 0.</_>
    <_>
      0. 6. 0. 0. 0. 0. 0. 0. 0.</_>
    <_>
      0. 0. 0. 0. 0. 0. 0. 0. 0.</_>
    <_>
      0. 0. 0. 0. 0. 0. 0. 0. 0.</_>
    <_>
      0. 0. 0. 0. 0. 0. 0. 0. 0.</_>
    <_>
      0. 16. 0. 0. 0. 0. 0. 0. 0.</_>
    <_>
      0. 2. 0. 0. 0. 0. 0. 0. 0.</_>
    <_>
      0. 2. 0. 0. 0. 0. 0. 0. 0.</_>
    <_>
      74057. 1644. 5.93653083e-01 3.24646205e-01 1.52864077e-32
      1.69848979e-33 0. -9.37983697e-34 0.</_>
    <_>
      0. 24. 0. 0. 0. 0. 0. 0. 0.</_>
    <_>
      0. 24. 0. 0. 0. 0. 0. 0. 0.</_>
    <_>
      63360. 1588. 6.62505269e-01 4.11135435e-01 0. 0. 0. 0. 0.</_>
    <_>
      0. 0. 0. 0. 0. 0. 0. 0. 0.</_>
    <_>
      62868. 1538. 6.17199242e-01 3.53157163e-01 0. 0. 0. 0. 0.</_>
    <_>
      0. 4. 0. 0. 0. 0. 0. 0. 0.</_>
    <_>
      62656. 1586. 6.69711053e-01 4.20735151e-01 9.38914922e-31
      1.00808524e-30 0. 6.52472904e-31 0.</_>
    <_>
      69400. 1588. 5.90341032e-01 3.20724726e-01 5.56245055e-31
      6.07080719e-31 0. 3.42976079e-31 0.</_>
    <_>
      5. 1.48284273e+01 2.58888900e-01 3.10086422e-02 6.03602547e-03
      1.42338988e-03 4.09228551e-06 2.37157816e-04 8.12495671e-07</_>
    <_>
      0. 0. 0. 0. 0. 0. 0. 0. 0.</_>
    <_>
      75221. 1620. 5.60191512e-01 2.86036760e-01 2.41704437e-34
      4.83408908e-35 0. 0. 0.</_>
    <_>
      0. 4. 0. 0. 0. 0. 0. 0. 0.</_>
    <_>
      0. 10. 0. 0. 0. 0. 0. 0. 0.</_>
    <_>
      57960. 1444. 5.82821488e-01 3.11903119e-01 0. 0. 0. 0. 0.</_>
    <_>
      0. 0. 0. 0. 0. 0. 0. 0. 0.</_>
    <_>
      0. 2. 0. 0. 0. 0. 0. 0. 0.</_>
    <_>
      78480. 1658. 5.63074470e-01 2.89275080e-01 0. 0. 0. 0. 0.</_>
    <_>
      1.34550000e+03 5.15355347e+02 2.68072605e+00 7.15505075e+00
      1.20002413e+00 1.17069077e+00 1.38757992e+00 3.11730027e+00
      -1.62572693e-03</_>
    <_>
      69795. 1608. 6.05136454e-01 3.38412374e-01 0. 0. 0. 0. 0.</_>
    <_>
      5.00000000e-01 3.41421366e+00 2.22222224e-01 1.23456791e-02
      5.48697170e-03 2.19478883e-04 -2.40854888e-07 -2.43865416e-05
      -6.10851430e-13</_>
    <_>
      0. 0. 0. 0. 0. 0. 0. 0. 0.</_>
    <_>
      1. 4.82842731e+00 2.22222224e-01 1.23456791e-02 5.48696844e-03
      2.19478738e-04 -2.40854575e-07 -2.43865270e-05 6.99853032e-16</_>
    <_>
      0. 6. 0. 0. 0. 0. 0. 0. 0.</_>
    <_>
      0. 44. 0. 0. 0. 0. 0. 0. 0.</_>
    <_>
      89152. 1816. 6.03987217e-01 3.37022752e-01 6.78824995e-31
      6.77502094e-31 0. 3.93122762e-31 0.</_>
    <_>
      68870. 1614. 6.21350586e-01 3.58298808e-01 2.19778696e-32
      2.44198556e-33 0. -1.41674914e-33 0.</_>
    <_>
      0. 2. 0. 0. 0. 0. 0. 0. 0.</_>
    <_>
      0. 0. 0. 0. 0. 0. 0. 0. 0.</_>
    <_>
      0. 18. 0. 0. 0. 0. 0. 0. 0.</_>
    <_>
      0. 0. 0. 0. 0. 0. 0. 0. 0.</_>
    <_>
      0. 0. 0. 0. 0. 0. 0. 0. 0.</_>
    <_>
      1. 4.82842731e+00 2.50000000e-01 3.47222239e-02 6.30365394e-19
      6.43011331e-19 4.00015781e-37 -1.19762040e-19 8.70483635e-38</_>
    <_>
      67900. 1594. 6.12922192e-01 3.47895831e-01 6.50224982e-31
      6.80795359e-31 0. 3.96306212e-31 0.</_>
    <_>
      5.00000000e-01 3.41421366e+00 2.22222224e-01 1.23456791e-02
      5.48697263e-03 2.19479989e-04 -2.40856735e-07 -2.43866652e-05
      -1.87088994e-12</_>
    <_>
      35. 8.76568527e+01 3.04513454e+00 9.24392700e+00 1.80955186e-01
      1.79811388e-01 3.24348062e-02 5.45904160e-01 -4.39036421e-06</_>
    <_>
      0. 0. 0. 0. 0. 0. 0. 0. 0.</_>
    <_>
      67355. 1608. 6.33095801e-01 3.73032510e-01 7.01544809e-31
      6.89452075e-31 0. 4.19245985e-31 0.</_>
    <_>
      4. 1.16568546e+01 4.21875000e-01 1.34575740e-01 1.16729746e-02
      2.39562918e-03 7.52345613e-06 9.00428640e-05 -1.01923897e-05</_>
    <_>
      0. 2. 0. 0. 0. 0. 0. 0. 0.</_>
    <_>
      71500. 1630. 6.07488334e-01 3.41264307e-01 4.79218202e-31
      5.23014300e-31 0. 3.04796657e-31 0.</_>
    <_>
      0. 0. 0. 0. 0. 0. 0. 0. 0.</_>
    <_>
      0. 12. 0. 0. 0. 0. 0. 0. 0.</_>
    <_>
      0. 2. 0. 0. 0. 0. 0. 0. 0.</_>
    <_>
      0. 0. 0. 0. 0. 0. 0. 0. 0.</_>
    <_>
      1. 8.82842731e+00 2.22222224e-01 1.23456791e-02 5.48696844e-03
      2.19478738e-04 -2.40854575e-07 -2.43865270e-05 -2.21202718e-15</_>
    <_>
      0. 0. 0. 0. 0. 0. 0. 0. 0.</_>
    <_>
      71100. 1622. 6.04220569e-01 3.37304741e-01 0. 0. 0. 0. 0.</_>
    <_>
      6. 1.28284273e+01 1.95859060e-01 7.91809615e-03 1.34324096e-03
      9.11723619e-05 4.74334172e-09 -3.72526802e-06 -3.15513979e-08</_>
    <_>
      0. 4. 0. 0. 0. 0. 0. 0. 0.</_>
    <_>
      0. 0. 0. 0. 0. 0. 0. 0. 0.</_>
    <_>
      0. 6. 0. 0. 0. 0. 0. 0. 0.</_>
    <_>
      0. 6. 0. 0. 0. 0. 0. 0. 0.</_>
    <_>
      0. 0. 0. 0. 0. 0. 0. 0. 0.</_>
    <_>
      0. 2. 0. 0. 0. 0. 0. 0. 0.</_>
    <_>
      0. 2. 0. 0. 0. 0. 0. 0. 0.</_>
    <_>
      0. 6. 0. 0. 0. 0. 0. 0. 0.</_>
    <_>
      67392. 1596. 6.20770991e-01 3.57578874e-01 0. 0. 0. 0. 0.</_>
    <_>
      67099. 1.70574011e+03 6.31258011e-01 3.70559573e-01 3.21247342e-07
      4.36905850e-07 1.59255706e-13 2.42350751e-07 -3.78086268e-14</_>
    <_>
      0. 4. 0. 0. 0. 0. 0. 0. 0.</_>
    <_>
      0. 4. 0. 0. 0. 0. 0. 0. 0.</_>
    <_>
      5. 8.82842731e+00 1.79777771e-01 4.47412347e-03 8.12009850e-04
      2.80230997e-05 -4.22722080e-09 -1.87443402e-06 5.25390397e-16</_>
    <_>
      0. 4. 0. 0. 0. 0. 0. 0. 0.</_>
    <_>
      0. 4. 0. 0. 0. 0. 0. 0. 0.</_>
    <_>
      0. 2. 0. 0. 0. 0. 0. 0. 0.</_>
    <_>
      0. 14. 0. 0. 0. 0. 0. 0. 0.</_>
    <_>
      0. 0. 0. 0. 0. 0. 0. 0. 0.</_>
    <_>
      0. 0. 0. 0. 0. 0. 0. 0. 0.</_>
    <_>
      77070. 1678. 5.94460666e-01 3.25605690e-01 0. 0. 0. 0. 0.</_>
    <_>
      70364. 1632. 6.21918380e-01 3.59004736e-01 0. 0. 0. 0. 0.</_>
    <_>
      72012. 1616. 5.88837028e-01 3.18951279e-01 0. 0. 0. 0. 0.</_>
    <_>
      0. 2. 0. 0. 0. 0. 0. 0. 0.</_>
    <_>
      3.50000000e+00 7.41421366e+00 1.71687722e-01 1.53637584e-03
      5.53174585e-04 4.54273760e-07 -7.20124524e-12 -1.78060020e-08
      -2.90544848e-16</_>
    <_>
      0. 0. 0. 0. 0. 0. 0. 0. 0.</_>
    <_>
      0. 0. 0. 0. 0. 0. 0. 0. 0.</_>
    <_>
      0. 2. 0. 0. 0. 0. 0. 0. 0.</_>
    <_>
      0. 0. 0. 0. 0. 0. 0. 0. 0.</_>
    <_>
      0. 2. 0. 0. 0. 0. 0. 0. 0.</_>
    <_>
      43. 1.00142136e+02 2.92798853e+00 8.53088856e+00 5.30199669e-02
      5.16538136e-02 2.70316750e-03 1.50280461e-01 3.48991193e-06</_>
    <_>
      0. 12. 0. 0. 0. 0. 0. 0. 0.</_>
    <_>
      0. 2. 0. 0. 0. 0. 0. 0. 0.</_>
    <_>
      62460. 1568. 6.53399527e-01 3.99153143e-01 0. 0. 0. 0. 0.</_>
    <_>
      94. 6.02842712e+01 5.08940160e-01 2.07496077e-01 6.17306679e-03
      3.88400606e-03 1.89940329e-05 1.74582913e-03 -9.59265776e-07</_>
    <_>
      0. 0. 0. 0. 0. 0. 0. 0. 0.</_>
    <_>
      0. 0. 0. 0. 0. 0. 0. 0. 0.</_>
    <_>
      0. 2. 0. 0. 0. 0. 0. 0. 0.</_>
    <_>
      65429. 1620. 6.68971956e-01 4.19745713e-01 7.87786974e-31
      7.98636410e-31 0. 5.17167203e-31 0.</_>
    <_>
      0. 0. 0. 0. 0. 0. 0. 0. 0.</_>
    <_>
      212. 3.00284271e+02 4.31510019e+00 1.85802727e+01 2.38886299e+01
      2.37963219e+01 5.67362183e+02 1.02572578e+02 -2.75040185e-03</_>
    <_>
      1.35000000e+01 1.50710678e+01 1.94968015e-01 1.07518667e-02
      1.90629493e-04 2.90666540e-05 1.33256683e-09 1.36054825e-06
      1.70459957e-09</_>
    <_>
      0. 0. 0. 0. 0. 0. 0. 0. 0.</_>
    <_>
      0. 0. 0. 0. 0. 0. 0. 0. 0.</_>
    <_>
      0. 6. 0. 0. 0. 0. 0. 0. 0.</_>
    <_>
      7.50000000e+00 1.14142132e+01 2.05497935e-01 1.48470905e-02
      2.20953982e-04 1.81772430e-05 4.33348878e-11 5.71972087e-08
      -1.15115928e-09</_>
    <_>
      69000. 1580. 5.87077320e-01 3.16881984e-01 0. 0. 0. 0. 0.</_>
    <_>
      5.00000000e-01 3.41421366e+00 2.22222224e-01 1.23456791e-02
      5.48696844e-03 2.19478738e-04 -2.40854604e-07 -2.43865270e-05
      -9.48691046e-15</_>
    <_>
      1.85000000e+01 1.70710678e+01 1.91055924e-01 8.89174640e-03
      4.37579583e-04 3.08043636e-05 1.71153280e-09 1.49275093e-06
      3.14027693e-09</_>
    <_>
      0. 0. 0. 0. 0. 0. 0. 0. 0.</_>
    <_>
      0. 0. 0. 0. 0. 0. 0. 0. 0.</_>
    <_>
      0. 2. 0. 0. 0. 0. 0. 0. 0.</_>
    <_>
      0. 8. 0. 0. 0. 0. 0. 0. 0.</_>
    <_>
      71306. 1614. 5.94429851e-01 3.25569093e-01 0. 0. 0. 0. 0.</_>
    <_>
      0. 0. 0. 0. 0. 0. 0. 0. 0.</_>
    <_>
      0. 0. 0. 0. 0. 0. 0. 0. 0.</_>
    <_>
      73290. 1606. 5.66504061e-01 2.93149084e-01 0. 0. 0. 0. 0.</_>
    <_>
      1.25000000e+01 2.10710678e+01 2.31011555e-01 1.98572632e-02
      3.80725344e-03 4.51855536e-04 4.36338127e-07 3.93205191e-05
      4.01066529e-07</_>
    <_>
      71975. 1.69711267e+03 5.67587852e-01 2.94204086e-01 1.10993803e-07
      4.36370925e-07 9.45593837e-14 2.35386381e-07 1.67748251e-14</_>
    <_>
      0. 0. 0. 0. 0. 0. 0. 0. 0.</_>
    <_>
      0. 6. 0. 0. 0. 0. 0. 0. 0.</_>
    <_>
      0. 0. 0. 0. 0. 0. 0. 0. 0.</_>
    <_>
      2. 6. 2.08333328e-01 1.56250000e-02 1.13466575e-16 1.14951940e-16
      1.31175163e-32 1.40066477e-17 -5.31977866e-34</_>
    <_>
      5.00000000e-01 3.41421366e+00 2.22222224e-01 1.23456791e-02
      5.48697077e-03 2.19479538e-04 -2.40855968e-07 -2.43866161e-05
      -1.16180383e-12</_>
    <_>
      64080. 1604. 6.69792950e-01 4.20844853e-01 0. 0. 0. 0. 0.</_>
    <_>
      0. 2. 0. 0. 0. 0. 0. 0. 0.</_>
    <_>
      0. 0. 0. 0. 0. 0. 0. 0. 0.</_>
    <_>
      0. 0. 0. 0. 0. 0. 0. 0. 0.</_>
    <_>
      0. 2. 0. 0. 0. 0. 0. 0. 0.</_>
    <_>
      0. 0. 0. 0. 0. 0. 0. 0. 0.</_>
    <_>
      0. 6. 0. 0. 0. 0. 0. 0. 0.</_>
    <_>
      0. 4.82842731e+00 0. 0. 0. 0. 0. 0. 0.</_>
    <_>
      71478. 1642. 6.19170725e-01 3.55594575e-01 0. 0. 0. 0. 0.</_>
    <_>
      67146. 1630. 6.57687485e-01 4.04775053e-01 0. 0. 0. 0. 0.</_>
    <_>
      0. 0. 0. 0. 0. 0. 0. 0. 0.</_>
    <_>
      0. 8. 0. 0. 0. 0. 0. 0. 0.</_>
    <_>
      0. 2. 0. 0. 0. 0. 0. 0. 0.</_>
    <_>
      35. 6.56568527e+01 6.68393254e-01 4.02005017e-01 1.20296508e-01
      9.73207504e-02 1.05290599e-02 6.15145303e-02 1.51712389e-04</_>
    <_>
      0. 4. 0. 0. 0. 0. 0. 0. 0.</_>
    <_>
      0. 4. 0. 0. 0. 0. 0. 0. 0.</_>
    <_>
      73723. 1592. 5.49545825e-01 2.74222821e-01 4.98215084e-31
      4.45186888e-31 0. 2.25506813e-31 0.</_>
    <_>
      5.00000000e-01 6.24264050e+00 2.22222224e-01 1.23456791e-02
      5.48696704e-03 2.19478025e-04 -2.40853382e-07 -2.43864488e-05
      9.14569527e-13</_>
    <_>
      71300. 1626. 6.05854392e-01 3.39281738e-01 1.84794207e-32
      2.05326904e-33 0. -1.15918648e-33 0.</_>
    <_>
      0. 4. 0. 0. 0. 0. 0. 0. 0.</_>
    <_>
      0. 0. 0. 0. 0. 0. 0. 0. 0.</_>
    <_>
      0. 4. 0. 0. 0. 0. 0. 0. 0.</_>
    <_>
      0. 0. 0. 0. 0. 0. 0. 0. 0.</_>
    <_>
      0. 40. 0. 0. 0. 0. 0. 0. 0.</_>
    <_>
      0. 0. 0. 0. 0. 0. 0. 0. 0.</_>
    <_>
      0. 0. 0. 0. 0. 0. 0. 0. 0.</_>
    <_>
      0. 0. 0. 0. 0. 0. 0. 0. 0.</_>
    <_>
      386. 3.50284271e+02 4.79619598e+00 2.29567204e+01 5.97205658e+01
      5.95547523e+01 3.55170264e+03 2.85341522e+02 -2.25042701e-02</_>
    <_>
      69064. 1618. 6.23036861e-01 3.60397130e-01 5.69908202e-31
      6.21992476e-31 0. 3.72500595e-31 0.</_>
    <_>
      0. 0. 0. 0. 0. 0. 0. 0. 0.</_>
    <_>
      14. 1.76568546e+01 2.81695426e-01 5.07972203e-02 5.83981222e-04
      2.04804397e-04 7.07328027e-08 4.59396069e-05 3.68159037e-09</_>
    <_>
      0. 2. 0. 0. 0. 0. 0. 0. 0.</_>
    <_>
      0. 2. 0. 0. 0. 0. 0. 0. 0.</_>
    <_>
      0. 0. 0. 0. 0. 0. 0. 0. 0.</_>
    <_>
      0. 0. 0. 0. 0. 0. 0. 0. 0.</_>
    <_>
      0. 0. 0. 0. 0. 0. 0. 0. 0.</_>
    <_>
      0. 0. 0. 0. 0. 0. 0. 0. 0.</_>
    <_>
      0. 0. 0. 0. 0. 0. 0. 0. 0.</_>
    <_>
      0. 22. 0. 0. 0. 0. 0. 0. 0.</_>
    <_>
      70801. 1604. 5.90389490e-01 3.20781976e-01 5.77279821e-31
      5.41159466e-31 0. 3.00709040e-31 0.</_>
    <_>
      1026. 1.08202441e+03 2.30473537e+01 5.31014587e+02 2.66756010e+00
      1.92286372e+00 4.34403658e+00 4.01850700e+01 -3.07648659e-01</_>
    <_>
      0. 0. 0. 0. 0. 0. 0. 0. 0.</_>
    <_>
      69161. 1620. 6.23880029e-01 3.61448526e-01 2.15193769e-32
      2.39104183e-33 0. -1.39327745e-33 0.</_>
    <_>
      0. 0. 0. 0. 0. 0. 0. 0. 0.</_>
    <_>
      0. 0. 0. 0. 0. 0. 0. 0. 0.</_>
    <_>
      0. 4. 0. 0. 0. 0. 0. 0. 0.</_>
    <_>
      0. 10. 0. 0. 0. 0. 0. 0. 0.</_>
    <_>
      0. 0. 0. 0. 0. 0. 0. 0. 0.</_>
    <_>
      48. 9.04852829e+01 1.15765834e+00 1.30924642e+00 1.06689734e-02
      9.43290070e-03 9.46235741e-05 1.05158044e-02 -1.10945405e-06</_>
    <_>
      0. 8. 0. 0. 0. 0. 0. 0. 0.</_>
    <_>
      0. 0. 0. 0. 0. 0. 0. 0. 0.</_>
    <_>
      73710. 1614. 5.69607258e-01 2.96674639e-01 0. 0. 0. 0. 0.</_>
    <_>
      0. 10. 0. 0. 0. 0. 0. 0. 0.</_>
    <_>
      0. 0. 0. 0. 0. 0. 0. 0. 0.</_>
    <_>
      0. 12. 0. 0. 0. 0. 0. 0. 0.</_>
    <_>
      69355. 1624. 6.25566542e-01 3.63555700e-01 5.58051978e-31
      6.09052728e-31 0. 3.66346082e-31 0.</_>
    <_>
      0. 0. 0. 0. 0. 0. 0. 0. 0.</_>
    <_>
      0. 2.82842708e+00 0. 0. 0. 0. 0. 0. 0.</_>
    <_>
      0. 8. 0. 0. 0. 0. 0. 0. 0.</_>
    <_>
      0. 2. 0. 0. 0. 0. 0. 0. 0.</_>
    <_>
      0. 0. 0. 0. 0. 0. 0. 0. 0.</_>
    <_>
      0. 4. 0. 0. 0. 0. 0. 0. 0.</_>
    <_>
      4. 8.82842731e+00 2.31770828e-01 2.37698033e-02 1.38282776e-03
      1.96033056e-04 4.07824174e-08 1.19485242e-06 -9.35634219e-08</_>
    <_>
      0. 0. 0. 0. 0. 0. 0. 0. 0.</_>
    <_>
      71400. 1628. 6.06671333e-01 3.40272337e-01 0. 0. 0. 0. 0.</_>
    <_>
      0. 4. 0. 0. 0. 0. 0. 0. 0.</_>
    <_>
      70567. 1.70628430e+03 5.89377582e-01 3.19382668e-01 1.68333099e-06
      1.32086586e-06 1.96519277e-12 6.12790188e-07 1.31336646e-13</_>
    <_>
      0. 14. 0. 0. 0. 0. 0. 0. 0.</_>
    <_>
      5.00000000e-01 2.74142132e+01 2.22222224e-01 1.23456791e-02
      5.48697077e-03 2.19478650e-04 -2.40854490e-07 -2.43865161e-05
      -2.10438316e-13</_>
    <_>
      67210. 1618. 6.44820988e-01 3.88016284e-01 6.84923225e-31
      7.16246481e-31 0. 4.40601379e-31 0.</_>
    <_>
      0. 0. 0. 0. 0. 0. 0. 0. 0.</_>
    <_>
      0. 0. 0. 0. 0. 0. 0. 0. 0.</_>
    <_>
      0. 0. 0. 0. 0. 0. 0. 0. 0.</_>
    <_>
      0. 0. 0. 0. 0. 0. 0. 0. 0.</_>
    <_>
      0. 0. 0. 0. 0. 0. 0. 0. 0.</_>
    <_>
      11. 1.84852810e+01 2.72998571e-01 4.41228002e-02 1.29790872e-03
      1.85752462e-04 7.27536431e-08 1.96154560e-05 5.50042003e-08</_>
    <_>
      67776. 1604. 6.24178648e-01 3.61821234e-01 0. 0. 0. 0. 0.</_>
    <_>
      64525. 1628. 6.89068854e-01 4.47038084e-01 8.13475005e-31
      8.79644240e-31 0. 5.83401702e-31 0.</_>
    <_>
      0. 0. 0. 0. 0. 0. 0. 0. 0.</_>
    <_>
      0. 0. 0. 0. 0. 0. 0. 0. 0.</_>
    <_>
      0. 0. 0. 0. 0. 0. 0. 0. 0.</_>
    <_>
      0. 6. 0. 0. 0. 0. 0. 0. 0.</_>
    <_>
      0. 4. 0. 0. 0. 0. 0. 0. 0.</_>
    <_>
      0. 0. 0. 0. 0. 0. 0. 0. 0.</_>
    <_>
      0. 4. 0. 0. 0. 0. 0. 0. 0.</_>
    <_>
      144. 1.00970566e+02 3.98420751e-01 1.13409817e-01 3.72289866e-02
      2.02251710e-02 5.53264748e-04 6.66274410e-03 4.36255978e-05</_>
    <_>
      0. 2. 0. 0. 0. 0. 0. 0. 0.</_>
    <_>
      0. 0. 0. 0. 0. 0. 0. 0. 0.</_>
    <_>
      0. 0. 0. 0. 0. 0. 0. 0. 0.</_>
    <_>
      0. 0. 0. 0. 0. 0. 0. 0. 0.</_>
    <_>
      0. 0. 0. 0. 0. 0. 0. 0. 0.</_>
    <_>
      0. 4. 0. 0. 0. 0. 0. 0. 0.</_>
    <_>
      1.50000000e+00 8.24264050e+00 2.05761313e-01 1.26166409e-02
      1.57586974e-03 2.77663174e-04 1.70442789e-07 2.81789708e-05
      -6.84384673e-08</_>
    <_>
      69635. 1656. 6.53782845e-01 3.99654210e-01 0. 0. 0. 0. 0.</_>
    <_>
      4. 8.82842731e+00 1.99652776e-01 8.03252775e-03 2.59171263e-03
      2.52142170e-04 2.01803360e-07 2.00252234e-05 -2.86503461e-08</_>
    <_>
      0. 8. 0. 0. 0. 0. 0. 0. 0.</_>
    <_>
      0. 2. 0. 0. 0. 0. 0. 0. 0.</_>
    <_>
      0. 0. 0. 0. 0. 0. 0. 0. 0.</_>
    <_>
      0. 0. 0. 0. 0. 0. 0. 0. 0.</_>
    <_>
      0. 2. 0. 0. 0. 0. 0. 0. 0.</_>
    <_>
      0. 0. 0. 0. 0. 0. 0. 0. 0.</_>
    <_>
      0. 0. 0. 0. 0. 0. 0. 0. 0.</_>
    <_>
      0. 0. 0. 0. 0. 0. 0. 0. 0.</_>
    <_>
      0. 0. 0. 0. 0. 0. 0. 0. 0.</_>
    <_>
      0. 4. 0. 0. 0. 0. 0. 0. 0.</_>
    <_>
      80143. 1712. 5.95238090e-01 3.26530606e-01 3.21452848e-31
      2.95502094e-31 0. 1.63380467e-31 0.</_>
    <_>
      0. 0. 0. 0. 0. 0. 0. 0. 0.</_>
    <_>
      0. 2. 0. 0. 0. 0. 0. 0. 0.</_>
    <_>
      0. 0. 0. 0. 0. 0. 0. 0. 0.</_>
    <_>
      0. 0. 0. 0. 0. 0. 0. 0. 0.</_>
    <_>
      0. 0. 0. 0. 0. 0. 0. 0. 0.</_>
    <_>
      0. 0. 0. 0. 0. 0. 0. 0. 0.</_>
    <_>
      0. 0. 0. 0. 0. 0. 0. 0. 0.</_>
    <_>
      5.00000000e-01 3.41421366e+00 2.22222224e-01 1.23456791e-02
      5.48696844e-03 2.19478738e-04 -2.40854575e-07 -2.43865270e-05
      -6.67160885e-15</_>
    <_>
      0. 2. 0. 0. 0. 0. 0. 0. 0.</_>
    <_>
      7. 1.56568546e+01 2.81503081e-01 4.57041673e-02 4.27263370e-03
      1.00682524e-03 1.96477777e-06 1.55464310e-04 7.07365075e-07</_>
    <_>
      35. 2.64852810e+01 2.34356329e-01 2.34047119e-02 1.56542170e-03
      2.79478321e-04 1.84790025e-07 4.05166720e-05 5.00688246e-09</_>
    <_>
      0. 0. 0. 0. 0. 0. 0. 0. 0.</_>
    <_>
      73746. 1650. 6.02442861e-01 3.35159600e-01 0. 0. 0. 0. 0.</_>
    <_>
      1.05000000e+01 1.30710678e+01 1.81141943e-01 4.31710854e-03
      5.48939453e-04 3.12846933e-05 1.36787659e-09 1.22322683e-06
      -3.86485066e-09</_>
    <_>
      1.81500000e+02 6.65269089e+01 2.35639617e-01 2.15032808e-02
      4.40310594e-03 2.76918930e-04 -2.99739213e-07 -4.01684556e-05
      6.04779515e-08</_>
    <_>
      72726. 1630. 5.94437778e-01 3.25578511e-01 0. 0. 0. 0. 0.</_>
    <_>
      0. 2.82842708e+00 0. 0. 0. 0. 0. 0. 0.</_>
    <_>
      0. 0. 0. 0. 0. 0. 0. 0. 0.</_>
    <_>
      1.50000000e+00 9.41421318e+00 2.05761313e-01 1.26166400e-02
      1.57586718e-03 2.77662126e-04 1.70441595e-07 2.81788489e-05
      6.84382186e-08</_>
    <_>
      0. 0. 0. 0. 0. 0. 0. 0. 0.</_>
    <_>
      0. 2. 0. 0. 0. 0. 0. 0. 0.</_>
    <_>
      5.00000000e-01 3.41421366e+00 2.22222224e-01 1.23456791e-02
      5.48693817e-03 2.19472859e-04 -2.40844258e-07 -2.43858740e-05
      1.04354381e-11</_>
    <_>
      0. 0. 0. 0. 0. 0. 0. 0. 0.</_>
    <_>
      0. 0. 0. 0. 0. 0. 0. 0. 0.</_>
    <_>
      0. 0. 0. 0. 0. 0. 0. 0. 0.</_>
    <_>
      5.00000000e-01 3.41421366e+00 2.22222224e-01 1.23456791e-02
      5.48701407e-03 2.19486654e-04 -2.40868616e-07 -2.43874056e-05
      -1.46514120e-11</_>
    <_>
      0. 8. 0. 0. 0. 0. 0. 0. 0.</_>
    <_>
      0. 2. 0. 0. 0. 0. 0. 0. 0.</_>
    <_>
      11. 1.56568546e+01 2.18820438e-01 1.89517606e-02 5.31500147e-04
      1.07351894e-04 2.56261288e-08 1.41155615e-05 -9.25880761e-10</_>
    <_>
      3. 1.08284273e+01 3.04526746e-01 6.30154610e-02 2.30846857e-03
      2.15442196e-04 -1.51935112e-07 -5.40821966e-05 1.04073170e-15</_>
    <_>
      0. 0. 0. 0. 0. 0. 0. 0. 0.</_>
    <_>
      12. 1.93137074e+01 3.62702549e-01 9.89689007e-02 4.23397031e-03
      1.44196465e-03 3.33852904e-06 2.78887630e-04 1.24443045e-06</_>
    <_>
      0. 0. 0. 0. 0. 0. 0. 0. 0.</_>
    <_>
      0. 0. 0. 0. 0. 0. 0. 0. 0.</_>
    <_>
      2.50000000e+00 7.41421366e+00 2.15111107e-01 9.80464183e-03
      2.92191608e-03 1.67313789e-04 -6.26307255e-08 -1.53713354e-05
      9.88077105e-08</_>
    <_>
      0. 0. 0. 0. 0. 0. 0. 0. 0.</_>
    <_>
      9.50000000e+00 1.50710678e+01 2.88121045e-01 5.55236153e-02
      2.42706956e-04 1.12413050e-04 1.85193372e-08 2.57729589e-05
      1.34405342e-09</_>
    <_>
      3. 1.16568546e+01 4.98971194e-01 1.50283024e-01 1.63864389e-01
      1.27158731e-01 1.83528904e-02 4.88897674e-02 2.97653838e-04</_>
    <_>
      0. 0. 0. 0. 0. 0. 0. 0. 0.</_>
    <_>
      5. 8.82842731e+00 1.83333337e-01 7.61111127e-03 5.59979561e-20
      7.20886046e-21 -6.97230064e-41 -6.28183141e-22 1.26953437e-40</_>
    <_>
      0. 0. 0. 0. 0. 0. 0. 0. 0.</_>
    <_>
      0. 0. 0. 0. 0. 0. 0. 0. 0.</_>
    <_>
      2. 8.82842731e+00 4.65277791e-01 1.55140817e-01 3.12607177e-02
      2.62639318e-02 7.51159561e-04 1.01632504e-02 -4.58307695e-05</_>
    <_>
      0. 0. 0. 0. 0. 0. 0. 0. 0.</_>
    <_>
      0. 0. 0. 0. 0. 0. 0. 0. 0.</_>
    <_>
      0. 0. 0. 0. 0. 0. 0. 0. 0.</_>
    <_>
      0. 0. 0. 0. 0. 0. 0. 0. 0.</_>
    <_>
      12. 5.88284264e+01 1.01387286e+00 1.00003219e+00 5.78697480e-04
      6.35899996e-05 -1.21985737e-08 -6.35910255e-05 4.37614708e-17</_>
    <_>
      0. 4.82842731e+00 0. 0. 0. 0. 0. 0. 0.</_>
    <_>
      0. 0. 0. 0. 0. 0. 0. 0. 0.</_>
    <_>
      5.00000000e-01 3.41421366e+00 2.22222224e-01 1.23456791e-02
      5.48696704e-03 2.19478592e-04 -2.40854320e-07 -2.43865106e-05
      -3.66179011e-13</_>
    <_>
      0. 2. 0. 0. 0. 0. 0. 0. 0.</_>
    <_>
      0. 0. 0. 0. 0. 0. 0. 0. 0.</_>
    <_>
      0. 2. 0. 0. 0. 0. 0. 0. 0.</_>
    <_>
      0. 2. 0. 0. 0. 0. 0. 0. 0.</_>
    <_>
      0. 0. 0. 0. 0. 0. 0. 0. 0.</_>
    <_>
      0. 5.65685415e+00 0. 0. 0. 0. 0. 0. 0.</_>
    <_>
      0. 0. 0. 0. 0. 0. 0. 0. 0.</_>
    <_>
      0. 0. 0. 0. 0. 0. 0. 0. 0.</_>
    <_>
      0. 2.82842708e+00 0. 0. 0. 0. 0. 0. 0.</_>
    <_>
      5.00000000e-01 9.41421318e+00 2.22222224e-01 1.23456791e-02
      5.48696844e-03 2.19478738e-04 -2.40854575e-07 -2.43865270e-05
      1.51780003e-15</_>
    <_>
      1. 4. 1.66666672e-01 3.64786650e-22 9.15888997e-16 8.90754459e-16
      8.04439873e-31 -1.68844460e-26 -1.38958479e-32</_>
    <_>
      0. 0. 0. 0. 0. 0. 0. 0. 0.</_>
    <_>
      0. 2. 0. 0. 0. 0. 0. 0. 0.</_>
    <_>
      0. 2. 0. 0. 0. 0. 0. 0. 0.</_>
    <_>
      0. 0. 0. 0. 0. 0. 0. 0. 0.</_>
    <_>
      0. 0. 0. 0. 0. 0. 0. 0. 0.</_>
    <_>
      0. 1.08284273e+01 0. 0. 0. 0. 0. 0. 0.</_>
    <_>
      5.00000000e-01 6.24264050e+00 2.22222224e-01 1.23456791e-02
      5.48696844e-03 2.19478738e-04 -2.40854604e-07 -2.43865270e-05
      -1.68917631e-14</_>
    <_>
      0. 0. 0. 0. 0. 0. 0. 0. 0.</_>
    <_>
      8. 12. 2.08333328e-01 1.56250000e-02 3.34970990e-22 3.17173682e-22
      3.36311631e-44 -1.71512750e-23 9.80908925e-44</_>
    <_>
      69791. 1584. 5.82312405e-01 3.11309993e-01 5.75974129e-31
      5.75974129e-31 0. 3.21365697e-31 0.</_>
    <_>
      0. 2. 0. 0. 0. 0. 0. 0. 0.</_>
    <_>
      0. 2. 0. 0. 0. 0. 0. 0. 0.</_>
    <_>
      5.00000000e-01 3.41421366e+00 2.22222224e-01 1.23456791e-02
      5.48696984e-03 2.19477835e-04 -2.40853126e-07 -2.43864270e-05
      7.39925319e-13</_>
    <_>
      67492. 1624. 6.47434771e-01 3.91393989e-01 6.70733315e-31
      7.01407605e-31 0. 4.33347121e-31 0.</_>
    <_>
      0. 0. 0. 0. 0. 0. 0. 0. 0.</_>
    <_>
      0. 4.82842731e+00 0. 0. 0. 0. 0. 0. 0.</_>
    <_>
      0. 4. 0. 0. 0. 0. 0. 0. 0.</_>
    <_>
      0. 0. 0. 0. 0. 0. 0. 0. 0.</_>
    <_>
      0. 0. 0. 0. 0. 0. 0. 0. 0.</_>
    <_>
      1. 4. 1.66666672e-01 3.64786650e-22 9.70799602e-16 8.96602586e-16
      8.36263514e-31 -1.67541222e-26 -1.97967737e-32</_>
    <_>
      1.55000000e+01 2.10710678e+01 2.94712424e-01 5.55136949e-02
      2.21968465e-03 6.04301575e-04 6.31670900e-07 1.00510690e-04
      3.01379998e-07</_>
    <_>
      0. 2. 0. 0. 0. 0. 0. 0. 0.</_>
    <_>
      0. 0. 0. 0. 0. 0. 0. 0. 0.</_>
    <_>
      1.50000000e+00 8.24264050e+00 2.05761313e-01 1.26166400e-02
      1.57586916e-03 2.77662970e-04 1.70442561e-07 2.81789489e-05
      6.84383963e-08</_>
    <_>
      0. 0. 0. 0. 0. 0. 0. 0. 0.</_>
    <_>
      0. 0. 0. 0. 0. 0. 0. 0. 0.</_>
    <_>
      0. 0. 0. 0. 0. 0. 0. 0. 0.</_>
    <_>
      0. 2.82842708e+00 0. 0. 0. 0. 0. 0. 0.</_>
    <_>
      8.50000000e+00 1.30710678e+01 2.25297958e-01 2.38715131e-02
      2.72037869e-04 6.53132156e-05 7.87270693e-09 6.27144300e-06
      3.71673026e-09</_>
    <_>
      7.20500000e+02 4.19781738e+02 4.73540020e+00 2.23675270e+01
      7.13213778e+00 7.01992941e+00 4.96716843e+01 3.31549492e+01
      -3.42741050e-02</_>
    <_>
      0. 0. 0. 0. 0. 0. 0. 0. 0.</_>
    <_>
      0. 22. 0. 0. 0. 0. 0. 0. 0.</_>
    <_>
      5.00000000e-01 3.41421366e+00 2.22222224e-01 1.23456791e-02
      5.48697030e-03 2.19478985e-04 -2.40855030e-07 -2.43865525e-05
      4.80495689e-13</_>
    <_>
      0. 36. 0. 0. 0. 0. 0. 0. 0.</_>
    <_>
      2.75000000e+01 2.92132034e+01 4.07883137e-01 1.37115225e-01
      2.20083608e-03 7.84607895e-04 9.43936641e-07 1.78921138e-04
      -4.14745898e-07</_>
    <_>
      0. 0. 0. 0. 0. 0. 0. 0. 0.</_>
    <_>
      0. 0. 0. 0. 0. 0. 0. 0. 0.</_>
    <_>
      3. 8. 2.77777791e-01 4.93827164e-02 0. 0. 0. 0. 0.</_>
    <_>
      0. 2. 0. 0. 0. 0. 0. 0. 0.</_>
    <_>
      0. 6. 0. 0. 0. 0. 0. 0. 0.</_>
    <_>
      0. 4.82842731e+00 0. 0. 0. 0. 0. 0. 0.</_>
    <_>
      0. 2. 0. 0. 0. 0. 0. 0. 0.</_>
    <_>
      0. 2. 0. 0. 0. 0. 0. 0. 0.</_>
    <_>
      14. 1.76568546e+01 2.81695426e-01 5.07972203e-02 5.83981222e-04
      2.04804397e-04 7.07328027e-08 4.59396069e-05 3.68159037e-09</_>
    <_>
      0. 0. 0. 0. 0. 0. 0. 0. 0.</_>
    <_>
      0. 0. 0. 0. 0. 0. 0. 0. 0.</_>
    <_>
      0. 0. 0. 0. 0. 0. 0. 0. 0.</_>
    <_>
      26. 2.41421356e+01 2.25405231e-01 2.04966702e-02 1.69711292e-03
      1.67499704e-04 1.91860590e-08 -3.42081444e-06 -8.72198456e-08</_>
    <_>
      0. 6.82842731e+00 0. 0. 0. 0. 0. 0. 0.</_>
    <_>
      2.50000000e+00 8.24264050e+00 3.11111122e-01 5.99427149e-02
      2.56280939e-04 3.18648032e-04 9.06721027e-08 7.79752736e-05
      -8.39010106e-09</_>
    <_>
      0. 0. 0. 0. 0. 0. 0. 0. 0.</_>
    <_>
      18. 4.33137093e+01 6.06519580e-01 3.02013218e-01 7.88304880e-02
      4.93770950e-02 3.07881739e-03 2.53584664e-02 -1.04805600e-04</_>
    <_>
      0. 0. 0. 0. 0. 0. 0. 0. 0.</_>
    <_>
      0. 0. 0. 0. 0. 0. 0. 0. 0.</_>
    <_>
      2.14500000e+02 1.17497475e+02 5.60819805e-01 2.36436233e-01
      1.29939064e-01 9.17640477e-02 1.00024156e-02 4.19217534e-02
      5.97624457e-04</_>
    <_>
      0. 0. 0. 0. 0. 0. 0. 0. 0.</_>
    <_>
      0. 8. 0. 0. 0. 0. 0. 0. 0.</_>
    <_>
      10. 2.48284264e+01 8.49972248e-01 6.94490731e-01 6.94429036e-04
      7.59359682e-05 -1.74375394e-08 -6.32820811e-05 -1.07772171e-16</_>
    <_>
      0. 0. 0. 0. 0. 0. 0. 0. 0.</_>
    <_>
      0. 12. 0. 0. 0. 0. 0. 0. 0.</_>
    <_>
      1.61750000e+03 4.69982758e+02 1.74741077e+00 3.02423596e+00
      4.29049522e-01 4.17544991e-01 1.76729247e-01 7.24161208e-01
      1.74624671e-04</_>
    <_>
      11. 3.33137093e+01 1.43745303e+00 1.99809635e+00 8.61676410e-02
      5.61295375e-02 3.88155575e-03 7.01582208e-02 4.13757341e-04</_>
    <_>
      69258. 1622. 6.24723256e-01 3.62501383e-01 0. 0. 0. 0. 0.</_>
    <_>
      5.00000000e-01 3.41421366e+00 2.22222224e-01 1.23456791e-02
      5.48695726e-03 2.19476307e-04 -2.40850341e-07 -2.43862560e-05
      4.10821550e-12</_>
    <_>
      4.50000000e+00 1.02426405e+01 2.19783574e-01 1.72289312e-02
      7.16768031e-04 3.26382833e-05 2.89467272e-09 7.06318531e-07
      -4.06713507e-09</_>
    <_>
      0. 0. 0. 0. 0. 0. 0. 0. 0.</_>
    <_>
      0. 0. 0. 0. 0. 0. 0. 0. 0.</_>
    <_>
      1.50000000e+00 9.41421318e+00 2.05761313e-01 1.26166400e-02
      1.57586823e-03 2.77663057e-04 1.70442661e-07 2.81789708e-05
      6.84382329e-08</_>
    <_>
      0. 0. 0. 0. 0. 0. 0. 0. 0.</_>
    <_>
      5.00000000e-01 3.41421366e+00 2.22222224e-01 1.23456791e-02
      5.48697123e-03 2.19478898e-04 -2.40854916e-07 -2.43865452e-05
      -4.76237051e-13</_>
    <_>
      0. 0. 0. 0. 0. 0. 0. 0. 0.</_>
    <_>
      0. 0. 0. 0. 0. 0. 0. 0. 0.</_>
    <_>
      0. 2. 0. 0. 0. 0. 0. 0. 0.</_>
    <_>
      5.50000000e+00 1.02426405e+01 2.26563156e-01 2.27052383e-02
      5.69352298e-04 8.29878772e-05 1.79348660e-08 1.22994688e-05
      -1.93549865e-09</_>
    <_>
      0. 4. 0. 0. 0. 0. 0. 0. 0.</_>
    <_>
      5.00000000e-01 3.41421366e+00 2.22222224e-01 1.23456791e-02
      5.48696844e-03 2.19478927e-04 -2.40854888e-07 -2.43865470e-05
      -2.60049388e-13</_>
    <_>
      0. 4. 0. 0. 0. 0. 0. 0. 0.</_>
    <_>
      0. 0. 0. 0. 0. 0. 0. 0. 0.</_>
    <_>
      0. 2. 0. 0. 0. 0. 0. 0. 0.</_>
    <_>
      0. 0. 0. 0. 0. 0. 0. 0. 0.</_>
    <_>
      1.50000000e+00 5.41421366e+00 2.05761313e-01 1.26166409e-02
      1.57587021e-03 2.77662912e-04 1.70442505e-07 2.81789326e-05
      -6.84385668e-08</_>
    <_>
      0. 2. 0. 0. 0. 0. 0. 0. 0.</_>
    <_>
      0. 2. 0. 0. 0. 0. 0. 0. 0.</_>
    <_>
      0. 0. 0. 0. 0. 0. 0. 0. 0.</_>
    <_>
      1. 1.28284273e+01 2.22222224e-01 1.23456791e-02 5.48696797e-03
      2.19478708e-04 -2.40854519e-07 -2.43865234e-05 6.63418756e-13</_>
    <_>
      37. 6.13137093e+01 1.81912279e+00 3.16578507e+00 4.88936806e+00
      4.60813713e+00 2.18726749e+01 8.16161728e+00 -1.66419491e-01</_>
    <_>
      0. 2.82842708e+00 0. 0. 0. 0. 0. 0. 0.</_>
    <_>
      6. 9.65685463e+00 1.80426955e-01 5.39767882e-03 5.19643014e-04
      2.45582069e-05 3.61572439e-11 -1.03729455e-07 -2.77402656e-09</_>
    <_>
      0. 12. 0. 0. 0. 0. 0. 0. 0.</_>
    <_>
      0. 8. 0. 0. 0. 0. 0. 0. 0.</_>
    <_>
      0. 0. 0. 0. 0. 0. 0. 0. 0.</_>
    <_>
      2.50000000e+00 7.41421366e+00 2.15111107e-01 9.80464183e-03
      2.92191561e-03 1.67315011e-04 -6.26306473e-08 -1.53714191e-05
      9.88092665e-08</_>
    <_>
      0. 2. 0. 0. 0. 0. 0. 0. 0.</_>
    <_>
      0. 0. 0. 0. 0. 0. 0. 0. 0.</_>
    <_>
      0. 0. 0. 0. 0. 0. 0. 0. 0.</_>
    <_>
      0. 2.82842708e+00 0. 0. 0. 0. 0. 0. 0.</_>
    <_>
      0. 2.82842708e+00 0. 0. 0. 0. 0. 0. 0.</_>
    <_>
      65964. 1618. 6.60149217e-01 4.08019215e-01 0. 0. 0. 0. 0.</_>
    <_>
      1. 4.82842731e+00 2.50000000e-01 3.47222239e-02 4.19117704e-15
      3.71000473e-15 1.46272183e-29 4.87302078e-16 -2.58783929e-31</_>
    <_>
      0. 0. 0. 0. 0. 0. 0. 0. 0.</_>
    <_>
      17. 1.56568546e+01 1.69663250e-01 2.39712419e-03 2.43165821e-04
      1.05587660e-05 4.61584160e-10 4.67544595e-07 -2.70532430e-10</_>
    <_>
      0. 0. 0. 0. 0. 0. 0. 0. 0.</_>
    <_>
      5.00000000e-01 6.24264050e+00 2.22222224e-01 1.23456791e-02
      5.48696844e-03 2.19478738e-04 -2.40854575e-07 -2.43865270e-05
      8.29212136e-15</_>
    <_>
      0. 0. 0. 0. 0. 0. 0. 0. 0.</_>
    <_>
      0. 2. 0. 0. 0. 0. 0. 0. 0.</_>
    <_>
      0. 0. 0. 0. 0. 0. 0. 0. 0.</_>
    <_>
      0. 0. 0. 0. 0. 0. 0. 0. 0.</_>
    <_>
      0. 2. 0. 0. 0. 0. 0. 0. 0.</_>
    <_>
      5.71500000e+02 2.40267029e+02 4.69061077e-01 1.49240091e-01
      2.76265061e-03 1.46765227e-03 2.81216512e-06 5.33564715e-04
      -9.08499203e-07</_>
    <_>
      0. 0. 0. 0. 0. 0. 0. 0. 0.</_>
    <_>
      0. 2.82842708e+00 0. 0. 0. 0. 0. 0. 0.</_>
    <_>
      0. 0. 0. 0. 0. 0. 0. 0. 0.</_>
    <_>
      1.46645000e+04 1.68762952e+03 3.68615532e+00 1.35444317e+01
      1.48630723e-01 1.49891675e-01 2.23728120e-02 5.50270498e-01
      2.22176459e-06</_>
    <_>
      5.00000000e-01 3.41421366e+00 2.22222224e-01 1.23456791e-02
      5.48696844e-03 2.19478738e-04 -2.40854575e-07 -2.43865270e-05
      5.53594773e-15</_>
    <_>
      2. 6.82842731e+00 2.60416657e-01 3.30946185e-02 3.05175711e-03
      8.81619344e-04 1.14518309e-06 9.39546953e-05 -8.83031532e-07</_>
    <_>
      0. 0. 0. 0. 0. 0. 0. 0. 0.</_>
    <_>
      9. 2.24852810e+01 4.72222209e-01 1.92472562e-01 0. 0. 0. 0. 0.</_>
    <_>
      0. 8. 0. 0. 0. 0. 0. 0. 0.</_>
    <_>
      0. 0. 0. 0. 0. 0. 0. 0. 0.</_>
    <_>
      0. 4. 0. 0. 0. 0. 0. 0. 0.</_>
    <_>
      0. 4.82842731e+00 0. 0. 0. 0. 0. 0. 0.</_>
    <_>
      0. 0. 0. 0. 0. 0. 0. 0. 0.</_>
    <_>
      5. 2.28284264e+01 4.49777782e-01 1.73796341e-01 1.38839509e-03
      1.44761856e-04 -6.48989626e-08 -6.03496082e-05 -9.04664010e-16</_>
    <_>
      0. 0. 0. 0. 0. 0. 0. 0. 0.</_>
    <_>
      1. 4.82842731e+00 2.50000000e-01 3.47222239e-02 1.04514019e-16
      7.63455611e-17 6.77653612e-33 -1.33297699e-17 -7.65748657e-34</_>
    <_>
      0. 4. 0. 0. 0. 0. 0. 0. 0.</_>
    <_>
      20. 3.61421356e+01 6.71232641e-01 3.69821370e-01 1.25037702e-02
      2.92144809e-03 1.05863692e-05 6.66066597e-04 1.41315113e-05</_>
    <_>
      0. 0. 0. 0. 0. 0. 0. 0. 0.</_>
    <_>
      2. 6. 2.08333328e-01 1.56250000e-02 1.10058597e-16 1.13047294e-16
      1.26095073e-32 1.40190769e-17 -5.52534576e-35</_>
    <_>
      0. 0. 0. 0. 0. 0. 0. 0. 0.</_>
    <_>
      1. 4. 1.66666672e-01 3.64786650e-22 3.43432198e-15 3.59842974e-15
      1.26498043e-29 -6.86785940e-26 -6.76768597e-32</_>
    <_>
      2.45000000e+01 2.47279224e+01 2.72473395e-01 4.52707037e-02
      1.21836807e-03 2.19344278e-04 8.37297520e-08 1.73470780e-05
      -7.64647297e-08</_>
    <_>
      26. 4.66274185e+01 1.30458045e+00 1.50032151e+00 6.67467833e-01
      5.90723634e-01 3.70794505e-01 7.11227119e-01 1.00176595e-02</_>
    <_>
      0. 0. 0. 0. 0. 0. 0. 0. 0.</_>
    <_>
      0. 0. 0. 0. 0. 0. 0. 0. 0.</_>
    <_>
      0. 4. 0. 0. 0. 0. 0. 0. 0.</_>
    <_>
      0. 0. 0. 0. 0. 0. 0. 0. 0.</_>
    <_>
      3. 6.82842731e+00 1.68724284e-01 2.70961405e-04 7.75686582e-04
      2.59321018e-06 -1.16305354e-10 -4.26865867e-08 -1.03199351e-16</_>
    <_>
      0. 0. 0. 0. 0. 0. 0. 0. 0.</_>
    <_>
      0. 0. 0. 0. 0. 0. 0. 0. 0.</_>
    <_>
      0. 0. 0. 0. 0. 0. 0. 0. 0.</_>
    <_>
      0. 2. 0. 0. 0. 0. 0. 0. 0.</_>
    <_>
      0. 0. 0. 0. 0. 0. 0. 0. 0.</_>
    <_>
      3.50000000e+00 8.24264050e+00 2.18334958e-01 1.97298527e-02
      1.02280104e-03 2.26332952e-04 1.00119365e-07 2.17081470e-05
      4.28338964e-08</_>
    <_>
      4.35000000e+01 3.87279205e+01 4.99523252e-01 2.11440399e-01
      1.01450998e-02 7.43465265e-03 6.45602413e-05 3.36701935e-03
      -1.01851344e-06</_>
    <_>
      0. 4. 0. 0. 0. 0. 0. 0. 0.</_>
    <_>
      0. 0. 0. 0. 0. 0. 0. 0. 0.</_>
    <_>
      65320. 1604. 6.53914034e-01 3.99825811e-01 3.19081114e-30
      3.21447826e-30 0. 2.03225858e-30 0.</_>
    <_>
      0. 0. 0. 0. 0. 0. 0. 0. 0.</_>
    <_>
      0. 2. 0. 0. 0. 0. 0. 0. 0.</_>
    <_>
      0. 0. 0. 0. 0. 0. 0. 0. 0.</_>
    <_>
      0. 0. 0. 0. 0. 0. 0. 0. 0.</_>
    <_>
      0. 2. 0. 0. 0. 0. 0. 0. 0.</_>
    <_>
      0. 4. 0. 0. 0. 0. 0. 0. 0.</_>
    <_>
      0. 8. 0. 0. 0. 0. 0. 0. 0.</_>
    <_>
      0. 20. 0. 0. 0. 0. 0. 0. 0.</_>
    <_>
      0. 0. 0. 0. 0. 0. 0. 0. 0.</_>
    <_>
      0. 0. 0. 0. 0. 0. 0. 0. 0.</_>
    <_>
      3.50000000e+00 8.24264050e+00 2.18334958e-01 1.74732972e-02
      9.21478786e-04 1.66942686e-04 4.28064553e-08 1.30950211e-05
      4.95473813e-08</_>
    <_>
      66928. 1612. 6.42207563e-01 3.84652764e-01 6.99474857e-31
      7.31463632e-31 0. 4.48007745e-31 0.</_>
    <_>
      2.15000000e+01 4.67279205e+01 1.47131419e+00 1.87239742e+00
      2.47929549e+00 2.14500642e+00 4.93936491e+00 2.85425663e+00
      -2.67505467e-01</_>
    <_>
      0. 0. 0. 0. 0. 0. 0. 0. 0.</_>
    <_>
      0. 2. 0. 0. 0. 0. 0. 0. 0.</_>
    <_>
      0. 0. 0. 0. 0. 0. 0. 0. 0.</_>
    <_>
      0. 58. 0. 0. 0. 0. 0. 0. 0.</_>
    <_>
      0. 0. 0. 0. 0. 0. 0. 0. 0.</_>
    <_>
      0. 0. 0. 0. 0. 0. 0. 0. 0.</_>
    <_>
      0. 2. 0. 0. 0. 0. 0. 0. 0.</_>
    <_>
      0. 0. 0. 0. 0. 0. 0. 0. 0.</_>
    <_>
      0. 1.48284273e+01 0. 0. 0. 0. 0. 0. 0.</_>
    <_>
      0. 0. 0. 0. 0. 0. 0. 0. 0.</_>
    <_>
      15. 2.04852810e+01 2.72337437e-01 4.15572785e-02 2.68200925e-03
      4.76998248e-04 4.41485781e-07 4.79310111e-05 3.10111488e-07</_>
    <_>
      0. 4. 0. 0. 0. 0. 0. 0. 0.</_>
    <_>
      7.50000000e+00 1.14142132e+01 2.05497935e-01 1.48470905e-02
      2.20953982e-04 1.81772448e-05 4.33351723e-11 5.71976244e-08
      1.15115950e-09</_>
    <_>
      5.00000000e-01 3.41421366e+00 2.22222224e-01 1.23456791e-02
      5.48697216e-03 2.19479436e-04 -2.40855826e-07 -2.43866034e-05
      1.31203241e-12</_>
    <_>
      0. 4. 0. 0. 0. 0. 0. 0. 0.</_>
    <_>
      0. 0. 0. 0. 0. 0. 0. 0. 0.</_>
    <_>
      0. 0. 0. 0. 0. 0. 0. 0. 0.</_>
    <_>
      1. 4.82842731e+00 2.22222224e-01 1.23456791e-02 5.48696890e-03
      2.19478592e-04 -2.40854348e-07 -2.43865088e-05 -1.29835257e-13</_>
    <_>
      5.00000000e-01 7.41421366e+00 2.22222224e-01 1.23456791e-02
      5.48696844e-03 2.19479101e-04 -2.40855172e-07 -2.43865670e-05
      2.86263065e-13</_>
    <_>
      1. 4. 1.66666672e-01 8.27180613e-25 2.67424390e-19 2.58224487e-19
      3.90894953e-38 -1.49625385e-31 -5.54673393e-38</_>
    <_>
      2.50000000e+00 7.41421366e+00 2.15111107e-01 9.80464183e-03
      2.92191724e-03 1.67315142e-04 -6.26310879e-08 -1.53714464e-05
      -9.88091813e-08</_>
    <_>
      1. 6.82842731e+00 6.66666687e-01 3.61111104e-01 5.62734809e-17
      5.55958545e-17 3.10967810e-33 -2.06438870e-17 -1.46936794e-36</_>
    <_>
      0. 0. 0. 0. 0. 0. 0. 0. 0.</_>
    <_>
      0. 0. 0. 0. 0. 0. 0. 0. 0.</_>
    <_>
      8. 2.96568546e+01 1.77425134e+00 3.06316948e+00 2.44107291e-01
      2.36907721e-01 5.69716766e-02 4.13466722e-01 -5.17262197e-05</_>
    <_>
      0. 0. 0. 0. 0. 0. 0. 0. 0.</_>
    <_>
      0. 1.08284273e+01 0. 0. 0. 0. 0. 0. 0.</_>
    <_>
      0. 2. 0. 0. 0. 0. 0. 0. 0.</_>
    <_>
      0. 0. 0. 0. 0. 0. 0. 0. 0.</_>
    <_>
      0. 0. 0. 0. 0. 0. 0. 0. 0.</_>
    <_>
      0. 0. 0. 0. 0. 0. 0. 0. 0.</_>
    <_>
      4. 8. 1.66666672e-01 3.64786650e-22 8.54007575e-16 9.00498620e-16
      7.89670492e-31 -1.71896227e-26 -5.23393488e-33</_>
    <_>
      0. 4. 0. 0. 0. 0. 0. 0. 0.</_>
    <_>
      0. 0. 0. 0. 0. 0. 0. 0. 0.</_>
    <_>
      0. 0. 0. 0. 0. 0. 0. 0. 0.</_>
    <_>
      3.64150000e+03 1.27320312e+03 8.40004730e+00 7.04966431e+01
      6.77247941e-01 6.60278022e-01 4.41533893e-01 5.53962231e+00
      2.35502361e-04</_>
    <_>
      0. 0. 0. 0. 0. 0. 0. 0. 0.</_>
    <_>
      0. 0. 0. 0. 0. 0. 0. 0. 0.</_>
    <_>
      0. 0. 0. 0. 0. 0. 0. 0. 0.</_>
    <_>
      0. 0. 0. 0. 0. 0. 0. 0. 0.</_>
    <_>
      0. 0. 0. 0. 0. 0. 0. 0. 0.</_>
    <_>
      1.04500000e+02 1.22183769e+02 1.84626651e+00 3.32155681e+00
      1.43572524e-01 5.09747751e-02 3.88283213e-03 4.94736955e-02
      -1.98504631e-03</_>
    <_>
      0. 2. 0. 0. 0. 0. 0. 0. 0.</_>
    <_>
      2.50000000e+00 7.41421366e+00 2.57777780e-01 3.79456803e-02
      8.95964738e-04 2.16669127e-04 8.03140665e-08 2.52778245e-05
      -5.16050704e-08</_>
    <_>
      0. 0. 0. 0. 0. 0. 0. 0. 0.</_>
    <_>
      2.95000000e+01 3.10710678e+01 4.93274480e-01 2.12810561e-01
      4.27976064e-03 3.03249410e-03 1.09236607e-05 1.39590865e-03
      1.51009644e-07</_>
    <_>
      0. 0. 0. 0. 0. 0. 0. 0. 0.</_>
    <_>
      2. 6.82842731e+00 2.60416657e-01 3.30946185e-02 3.05176177e-03
      8.81619286e-04 1.14518548e-06 9.39547681e-05 -8.83030111e-07</_>
    <_>
      0. 2. 0. 0. 0. 0. 0. 0. 0.</_>
    <_>
      11. 3.16568546e+01 1.08206022e+00 1.09428084e+00 9.04212818e-02
      4.11866568e-02 2.40006018e-03 2.66163927e-02 7.46416568e-04</_>
    <_>
      5.00000000e-01 3.41421366e+00 2.22222224e-01 1.23456791e-02
      5.48697403e-03 2.19479887e-04 -2.40856622e-07 -2.43866543e-05
      2.01670343e-12</_>
    <_>
      0. 0. 0. 0. 0. 0. 0. 0. 0.</_>
    <_>
      0. 4.82842731e+00 0. 0. 0. 0. 0. 0. 0.</_>
    <_>
      0. 2. 0. 0. 0. 0. 0. 0. 0.</_>
    <_>
      0. 4. 0. 0. 0. 0. 0. 0. 0.</_>
    <_>
      1. 4.82842731e+00 2.50000000e-01 3.47222239e-02 2.04447813e-17
      2.18204091e-17 4.60434663e-34 1.10730191e-18 2.02011172e-35</_>
    <_>
      0. 2. 0. 0. 0. 0. 0. 0. 0.</_>
    <_>
      0. 0. 0. 0. 0. 0. 0. 0. 0.</_>
    <_>
      5.00000000e-01 7.41421366e+00 2.22222224e-01 1.23456791e-02
      5.48696844e-03 2.19478752e-04 -2.40854604e-07 -2.43865270e-05
      -4.60384870e-14</_>
    <_>
      0. 2. 0. 0. 0. 0. 0. 0. 0.</_>
    <_>
      0. 4. 0. 0. 0. 0. 0. 0. 0.</_>
    <_>
      0. 2. 0. 0. 0. 0. 0. 0. 0.</_>
    <_>
      8.50000000e+00 1.94142132e+01 7.23025084e-01 4.94923532e-01
      2.56017549e-04 7.28349478e-05 7.91781307e-09 2.06653967e-05
      6.01908523e-09</_>
    <_>
      70756. 1640. 6.25256777e-01 3.63168240e-01 5.66588136e-31
      5.47091904e-31 0. 3.23515276e-31 0.</_>
    <_>
      80907. 1.65882837e+03 5.41169226e-01 2.65085995e-01 4.39231144e-13
      7.38113997e-14 3.07228293e-27 2.55134930e-14 1.29302222e-26</_>
    <_>
      68. 3.66274147e+01 1.96769267e-01 1.03022577e-02 6.40922168e-04
      2.45486881e-05 5.57952018e-10 -5.54286316e-07 -3.02827941e-09</_>
    <_>
      0. 0. 0. 0. 0. 0. 0. 0. 0.</_>
    <_>
      2.50000000e+00 8.24264050e+00 1.72444448e-01 2.75041978e-03
      2.34637700e-04 1.01418038e-06 1.56448604e-11 5.31881277e-08
      -2.73204654e-16</_>
    <_>
      62300. 1578. 6.66025937e-01 4.15812790e-01 1.00028513e-30
      1.03052044e-30 0. 6.61391614e-31 0.</_>
    <_>
      11. 2.56568546e+01 2.78508216e-01 3.49747911e-02 1.08251274e-02
      1.71971321e-03 5.70041630e-06 2.04439260e-04 4.74982107e-06</_>
    <_>
      0. 0. 0. 0. 0. 0. 0. 0. 0.</_>
    <_>
      0. 2. 0. 0. 0. 0. 0. 0. 0.</_>
    <_>
      0. 0. 0. 0. 0. 0. 0. 0. 0.</_>
    <_>
      0. 0. 0. 0. 0. 0. 0. 0. 0.</_>
    <_>
      0. 0. 0. 0. 0. 0. 0. 0. 0.</_>
    <_>
      1.50000000e+00 5.41421366e+00 2.05761313e-01 1.26166400e-02
      1.57586916e-03 2.77662941e-04 1.70442547e-07 2.81789471e-05
      -6.84383963e-08</_>
    <_>
      2. 9.65685463e+00 6.11111104e-01 3.08641970e-01 6.85870880e-04
      2.74348313e-05 -3.76335008e-09 -1.52415723e-05 4.28360079e-14</_>
    <_>
      4. 1.16568546e+01 4.21875000e-01 1.34575740e-01 1.16729746e-02
      2.39562918e-03 7.52345613e-06 9.00428640e-05 -1.01923897e-05</_>
    <_>
      0. 0. 0. 0. 0. 0. 0. 0. 0.</_>
    <_>
      0. 0. 0. 0. 0. 0. 0. 0. 0.</_>
    <_>
      0. 0. 0. 0. 0. 0. 0. 0. 0.</_>
    <_>
      0. 0. 0. 0. 0. 0. 0. 0. 0.</_>
    <_>
      0. 0. 0. 0. 0. 0. 0. 0. 0.</_>
    <_>
      0. 2. 0. 0. 0. 0. 0. 0. 0.</_>
    <_>
      1. 8.82842731e+00 2.22222224e-01 1.23456791e-02 5.48696797e-03
      2.19478708e-04 -2.40854519e-07 -2.43865234e-05 3.58484374e-13</_>
    <_>
      0. 2. 0. 0. 0. 0. 0. 0. 0.</_>
    <_>
      0. 0. 0. 0. 0. 0. 0. 0. 0.</_>
    <_>
      28. 2.73137093e+01 2.14891836e-01 1.40815051e-02 2.22042459e-03
      6.84822327e-04 8.34877085e-07 8.06401295e-05 -1.26932918e-07</_>
    <_>
      0. 0. 0. 0. 0. 0. 0. 0. 0.</_>
    <_>
      0. 2. 0. 0. 0. 0. 0. 0. 0.</_>
    <_>
      1.50000000e+00 5.41421366e+00 2.05761313e-01 1.26166400e-02
      1.57586497e-03 2.77663901e-04 1.70442462e-07 2.81789562e-05
      -6.84404924e-08</_>
    <_>
      59160. 1534. 6.62002742e-01 4.10469890e-01 0. 0. 0. 0. 0.</_>
    <_>
      0. 0. 0. 0. 0. 0. 0. 0. 0.</_>
    <_>
      0. 0. 0. 0. 0. 0. 0. 0. 0.</_>
    <_>
      0. 2. 0. 0. 0. 0. 0. 0. 0.</_>
    <_>
      0. 2. 0. 0. 0. 0. 0. 0. 0.</_>
    <_>
      5.00000000e-01 3.41421366e+00 2.22222224e-01 1.23456791e-02
      5.48697077e-03 2.19478941e-04 -2.40854973e-07 -2.43865488e-05
      -4.88397354e-13</_>
    <_>
      4.50000000e+00 3.47279205e+01 6.53650379e+00 4.02294693e+01
      1.10697975e+01 6.52984619e+00 5.50092773e+01 3.73758278e+01
      -7.48944283e+00</_>
    <_>
      2. 1.53137083e+01 2.50000000e-01 3.47222239e-02 4.12040811e-25
      4.28969593e-25 0. 6.35434423e-26 0.</_>
    <_>
      0. 0. 0. 0. 0. 0. 0. 0. 0.</_>
    <_>
      7.50000000e+00 1.50710678e+01 1.96148142e-01 1.02970644e-03
      3.64315906e-03 6.34800745e-05 1.71632770e-08 -1.17597017e-06
      2.52461305e-08</_>
    <_>
      75293. 1668. 6.03165865e-01 3.36031258e-01 1.40722323e-32
      1.56358142e-33 0. -8.78491469e-34 0.</_>
    <_>
      0. 0. 0. 0. 0. 0. 0. 0. 0.</_>
    <_>
      0. 0. 0. 0. 0. 0. 0. 0. 0.</_>
    <_>
      5.00000000e-01 3.41421366e+00 2.22222224e-01 1.23456791e-02
      5.48696984e-03 2.19479014e-04 -2.40855059e-07 -2.43865561e-05
      -3.91352071e-13</_>
    <_>
      0. 2. 0. 0. 0. 0. 0. 0. 0.</_>
    <_>
      2.35000000e+01 3.18994942e+01 5.68777859e-01 2.92707890e-01
      2.60397974e-05 3.44001478e-06 -2.25475437e-11 -1.34416098e-06
      2.34870023e-11</_>
    <_>
      0. 2. 0. 0. 0. 0. 0. 0. 0.</_>
    <_>
      1. 4. 1.66666672e-01 3.64786650e-22 3.55026300e-15 3.61223384e-15
      1.29358124e-29 -6.84191143e-26 -1.52892891e-32</_>
    <_>
      0. 2. 0. 0. 0. 0. 0. 0. 0.</_>
    <_>
      0. 0. 0. 0. 0. 0. 0. 0. 0.</_>
    <_>
      0. 0. 0. 0. 0. 0. 0. 0. 0.</_>
    <_>
      66216. 1610. 6.48877680e-01 3.93264443e-01 0. 0. 0. 0. 0.</_>
    <_>
      1.55000000e+01 2.82426414e+01 5.39767802e-01 2.58228660e-01
      2.98575498e-02 2.46195830e-02 6.67492626e-04 1.25107309e-02
      1.84767146e-06</_>
    <_>
      106. 3.08970551e+02 9.03379631e+00 8.15482254e+01 1.04285419e+00
      1.02442694e+00 1.05884707e+00 9.16409016e+00 -6.17934507e-04</_>
    <_>
      6. 1.28284273e+01 3.34747940e-01 7.05728903e-02 9.96784028e-03
      3.58349853e-03 2.03160816e-05 8.32923397e-04 6.77868229e-06</_>
    <_>
      0. 0. 0. 0. 0. 0. 0. 0. 0.</_>
    <_>
      0. 0. 0. 0. 0. 0. 0. 0. 0.</_>
    <_>
      1. 4.82842731e+00 2.22222224e-01 1.23456791e-02 5.48696658e-03
      2.19479029e-04 -2.40855030e-07 -2.43865579e-05 -6.43499671e-14</_>
    <_>
      0. 0. 0. 0. 0. 0. 0. 0. 0.</_>
    <_>
      0. 0. 0. 0. 0. 0. 0. 0. 0.</_>
    <_>
      0. 2. 0. 0. 0. 0. 0. 0. 0.</_>
    <_>
      0. 0. 0. 0. 0. 0. 0. 0. 0.</_>
    <_>
      0. 2. 0. 0. 0. 0. 0. 0. 0.</_>
    <_>
      0. 0. 0. 0. 0. 0. 0. 0. 0.</_>
    <_>
      0. 0. 0. 0. 0. 0. 0. 0. 0.</_>
    <_>
      1.50000000e+00 5.41421366e+00 2.05761313e-01 1.26166409e-02
      1.57585728e-03 2.77657207e-04 1.70436067e-07 2.81782686e-05
      -6.84374015e-08</_>
    <_>
      0. 0. 0. 0. 0. 0. 0. 0. 0.</_>
    <_>
      2. 1.28284273e+01 2.50000000e-01 3.47222239e-02 1.01279366e-17
      8.36218802e-18 7.56642123e-35 1.53584889e-18 -1.40390301e-35</_>
    <_>
      69984. 1650. 6.43786430e-01 3.86683196e-01 0. 0. 0. 0. 0.</_>
    <_>
      1. 4. 1.66666672e-01 2.06795153e-23 1.46775341e-17 1.41673010e-17
      2.03877625e-34 -6.27493856e-29 -1.30484709e-35</_>
    <_>
      0. 2. 0. 0. 0. 0. 0. 0. 0.</_>
    <_>
      0. 0. 0. 0. 0. 0. 0. 0. 0.</_>
    <_>
      0. 16. 0. 0. 0. 0. 0. 0. 0.</_>
    <_>
      0. 0. 0. 0. 0. 0. 0. 0. 0.</_>
    <_>
      0. 0. 0. 0. 0. 0. 0. 0. 0.</_>
    <_>
      5. 2.28284264e+01 4.49777782e-01 1.73796341e-01 1.38839509e-03
      1.44761856e-04 -6.48989626e-08 -6.03496082e-05 7.94479185e-17</_>
    <_>
      5.00000000e-01 3.41421366e+00 2.22222224e-01 1.23456791e-02
      5.48697496e-03 2.19479844e-04 -2.40856536e-07 -2.43866489e-05
      2.09654082e-12</_>
    <_>
      0. 0. 0. 0. 0. 0. 0. 0. 0.</_>
    <_>
      0. 2. 0. 0. 0. 0. 0. 0. 0.</_>
    <_>
      0. 2. 0. 0. 0. 0. 0. 0. 0.</_>
    <_>
      65740. 1574. 6.18457794e-01 3.54712278e-01 7.46789774e-31
      7.93792621e-31 0. 4.70559087e-31 0.</_>
    <_>
      0. 2. 0. 0. 0. 0. 0. 0. 0.</_>
    <_>
      6.50000000e+00 1.14142132e+01 1.89450264e-01 4.18348890e-03
      6.02826593e-04 4.85798664e-05 4.53799620e-09 -1.48097661e-06
      -6.96561964e-09</_>
    <_>
      0. 2. 0. 0. 0. 0. 0. 0. 0.</_>
    <_>
      7. 1.56568546e+01 4.59345639e-01 1.67191714e-01 1.50068579e-02
      3.93870519e-03 2.29993766e-05 6.52759220e-04 -1.96974179e-05</_>
    <_>
      0. 0. 0. 0. 0. 0. 0. 0. 0.</_>
    <_>
      0. 0. 0. 0. 0. 0. 0. 0. 0.</_>
    <_>
      0. 0. 0. 0. 0. 0. 0. 0. 0.</_>
    <_>
      8.75000000e+01 6.01837654e+01 3.30496788e-01 3.77058536e-02
      2.90044919e-02 5.68784541e-03 5.33967723e-05 7.00804754e-04
      -4.98590525e-05</_>
    <_>
      0. 2. 0. 0. 0. 0. 0. 0. 0.</_>
    <_>
      0. 4. 0. 0. 0. 0. 0. 0. 0.</_>
    <_>
      0. 0. 0. 0. 0. 0. 0. 0. 0.</_>
    <_>
      0. 24. 0. 0. 0. 0. 0. 0. 0.</_>
    <_>
      0. 2. 0. 0. 0. 0. 0. 0. 0.</_>
    <_>
      82949. 1740. 5.93740344e-01 3.24749798e-01 8.67492643e-33
      1.29327181e-33 0. -6.31407928e-34 0.</_>
    <_>
      5.00000000e-01 3.41421366e+00 2.22222224e-01 1.23456791e-02
      5.48696890e-03 2.19479043e-04 -2.40855087e-07 -2.43865597e-05
      3.81746989e-13</_>
    <_>
      4.50000000e+00 9.07106781e+00 2.27099523e-01 2.46931929e-02
      6.39540085e-05 3.76801449e-06 5.84928425e-11 5.92108393e-07
      -6.11686466e-19</_>
    <_>
      1. 4.82842731e+00 2.50000000e-01 3.47222239e-02 3.53616456e-15
      3.68328593e-15 1.32927173e-29 1.89172434e-16 6.76793047e-32</_>
    <_>
      6.56725000e+04 1.71784058e+03 6.58239305e-01 4.05246049e-01
      6.37006224e-07 1.55772364e-06 1.54716311e-12 9.88394163e-07
      -1.18557237e-13</_>
    <_>
      1.15000000e+01 2.42426414e+01 3.67862076e-01 1.02897517e-01
      9.40049160e-03 5.22044580e-03 3.64554471e-05 1.58501905e-03
      -2.90470621e-06</_>
    <_>
      92. 5.22842712e+01 2.97146767e-01 5.57313450e-02 1.41010492e-03
      5.52784593e-04 4.61306058e-07 7.08863081e-05 1.59324770e-07</_>
    <_>
      40. 4.01421356e+01 3.51597220e-01 8.80526975e-02 4.04937949e-04
      1.64238503e-04 3.81010743e-08 4.46802878e-05 1.85005575e-08</_>
    <_>
      69768. 1572. 5.71250439e-01 2.98549265e-01 0. 0. 0. 0. 0.</_>
    <_>
      1.50000000e+00 9.07106781e+00 3.04526746e-01 6.30154610e-02
      2.30846857e-03 2.15442196e-04 -1.51935097e-07 -5.40821966e-05
      6.99531424e-18</_>
    <_>
      33. 3.24852829e+01 4.16720778e-01 1.41303942e-01 3.19393538e-03
      3.77444114e-04 -2.48283470e-07 -1.05277250e-04 3.31813681e-07</_>
    <_>
      2.50000000e+00 7.41421366e+00 2.57777780e-01 3.79456803e-02
      8.95965379e-04 2.16669257e-04 8.03142441e-08 2.52778882e-05
      -5.16050314e-08</_>
    <_>
      5.00000000e-01 3.41421366e+00 2.22222224e-01 1.23456791e-02
      5.48697775e-03 2.19479669e-04 -2.40856309e-07 -2.43866289e-05
      2.31275090e-12</_>
    <_>
      3.50000000e+00 2.62426414e+01 2.18334958e-01 1.97298527e-02
      1.02280045e-03 2.26333053e-04 1.00119529e-07 2.17081961e-05
      4.28336264e-08</_>
    <_>
      41. 2.93137093e+01 2.35116616e-01 2.83515472e-02 2.88025913e-04
      6.70967565e-05 8.88739304e-09 8.69714404e-06 -2.83154011e-09</_>
    <_>
      0. 8. 0. 0. 0. 0. 0. 0. 0.</_>
    <_>
      1. 4.82842731e+00 2.22222224e-01 1.23456791e-02 5.48696844e-03
      2.19478738e-04 -2.40854575e-07 -2.43865252e-05 4.14902928e-14</_>
    <_>
      1. 4. 1.66666672e-01 8.07793567e-26 1.71709205e-21 2.07970089e-21
      3.92643830e-42 -5.71220689e-34 1.68155816e-43</_>
    <_>
      0. 4. 0. 0. 0. 0. 0. 0. 0.</_>
    <_>
      3.45000000e+01 4.38994942e+01 8.31413746e-01 6.37680292e-01
      1.73421964e-01 1.46382064e-01 2.33172495e-02 1.14642292e-01
      5.16459637e-04</_>
    <_>
      78660. 1608. 5.18154085e-01 2.40705878e-01 0. 0. 0. 0. 0.</_>
    <_>
      0. 10. 0. 0. 0. 0. 0. 0. 0.</_>
    <_>
      7.50000000e+00 1.14142132e+01 1.79423869e-01 2.40161223e-03
      8.67872848e-04 1.29500586e-05 -3.36524530e-10 -4.33584177e-07
      -1.33100619e-09</_>
    <_>
      7.50000000e+00 3.70710678e+01 2.72263378e-01 3.88851576e-02
      4.70589381e-03 1.16076448e-03 2.64665641e-06 2.06001860e-04
      5.95946631e-07</_>
    <_>
      0. 2. 0. 0. 0. 0. 0. 0. 0.</_>
    <_>
      0. 2. 0. 0. 0. 0. 0. 0. 0.</_>
    <_>
      1.61500000e+02 7.68700562e+01 2.27058649e-01 8.29223951e-04
      2.08399049e-03 1.47408471e-04 3.09637223e-08 3.22426672e-06
      -7.56070762e-08</_>
    <_>
      0. 4. 0. 0. 0. 0. 0. 0. 0.</_>
    <_>
      0. 2. 0. 0. 0. 0. 0. 0. 0.</_>
    <_>
      12053. 1.61096045e+03 3.90394664e+00 1.51964264e+01 5.09463727e-01
      4.60332155e-01 2.22912252e-01 1.74872196e+00 -2.60583335e-03</_>
    <_>
      71181. 1636. 6.16693139e-01 3.52532625e-01 0. 0. 0. 0. 0.</_>
    <_>
      1. 4.82842731e+00 2.50000000e-01 3.47222239e-02 5.30711802e-17
      7.32152119e-17 4.56279667e-33 1.14066056e-17 9.80405336e-35</_>
    <_>
      5.00000000e-01 3.41421366e+00 2.22222224e-01 1.23456791e-02
      5.48696937e-03 2.19478650e-04 -2.40854433e-07 -2.43865161e-05
      1.13179946e-13</_>
    <_>
      0. 2. 0. 0. 0. 0. 0. 0. 0.</_>
    <_>
      0. 4. 0. 0. 0. 0. 0. 0. 0.</_>
    <_>
      2.50000000e+00 7.41421366e+00 2.57777780e-01 3.79456803e-02
      8.95964855e-04 2.16669403e-04 8.03142868e-08 2.52778937e-05
      5.16050846e-08</_>
    <_>
      0. 16. 0. 0. 0. 0. 0. 0. 0.</_>
    <_>
      0. 2. 0. 0. 0. 0. 0. 0. 0.</_>
    <_>
      29. 3.86274147e+01 6.27469778e-01 3.55970144e-01 1.49955740e-02
      4.45535034e-03 2.97431179e-05 1.17616798e-03 2.10129965e-05</_>
    <_>
      1. 4.82842731e+00 2.22222224e-01 1.23456791e-02 5.48696844e-03
      2.19478738e-04 -2.40854575e-07 -2.43865252e-05 4.37792096e-14</_>
    <_>
      2.75000000e+01 4.92132034e+01 1.28552306e+00 1.57286274e+00
      1.90452695e-01 1.51372045e-01 2.56798416e-02 1.83919564e-01
      1.06004300e-03</_>
    <_>
      83952. 1796. 6.33794725e-01 3.73917967e-01 0. 0. 0. 0. 0.</_>
    <_>
      2.50000000e+00 1.02426405e+01 3.43111098e-01 8.29637498e-02
      5.13952225e-03 2.04105815e-03 6.38397432e-06 5.32391248e-04
      1.71628210e-06</_>
    <_>
      0. 2. 0. 0. 0. 0. 0. 0. 0.</_>
    <_>
      0. 4. 0. 0. 0. 0. 0. 0. 0.</_>
    <_>
      0. 2. 0. 0. 0. 0. 0. 0. 0.</_>
    <_>
      0. 4. 0. 0. 0. 0. 0. 0. 0.</_>
    <_>
      2.71500000e+02 1.01639610e+02 3.07316065e-01 4.09687646e-02
      9.35330114e-04 6.22849388e-04 4.22370334e-07 7.49107639e-05
      2.18188532e-07</_>
    <_>
      126. 5.45313721e+02 1.34352388e+01 1.80470139e+02 1.19054993e+02
      1.19054047e+02 1.41739219e+04 1.59936035e+03 -1.83199858e-03</_>
    <_>
      0. 2. 0. 0. 0. 0. 0. 0. 0.</_>
    <_>
      72107. 1.67111267e+03 5.58344424e-01 2.83839852e-01 6.91215178e-07
      5.53539849e-07 3.41414966e-13 2.44942328e-07 2.59137160e-14</_>
    <_>
      7. 1.48284273e+01 3.94233882e-01 1.20591395e-01 2.46785861e-03
      1.80935152e-04 -1.20905085e-07 -6.28320340e-05 -5.06238897e-15</_>
    <_>
      0. 2. 0. 0. 0. 0. 0. 0. 0.</_>
    <_>
      2.50000000e+00 8.24264050e+00 2.15111107e-01 5.06390119e-03
      3.29106255e-03 9.20615639e-06 -1.40171985e-09 1.45633763e-07
      7.76556652e-10</_>
    <_>
      1.05000000e+01 1.78994942e+01 4.42596793e-01 1.61709458e-01
      3.05022253e-03 1.31382304e-03 2.52878317e-06 4.38204675e-04
      7.22941252e-07</_>
    <_>
      5.00000000e-01 3.41421366e+00 2.22222224e-01 1.23456791e-02
      5.48696844e-03 2.19478723e-04 -2.40854547e-07 -2.43865252e-05
      -8.28031457e-15</_>
    <_>
      69201. 1596. 6.00186408e-01 3.32445949e-01 0. 0. 0. 0. 0.</_>
    <_>
      3. 1.16568537e+01 3.59053493e-01 9.06249434e-02 7.75630167e-03
      2.34189420e-03 9.77586478e-06 6.15852419e-04 -2.01364423e-06</_>
    <_>
      6. 2.64852810e+01 1.19444442e+00 1.37422836e+00 0. 0. 0. 0. 0.</_>
    <_>
      0. 2. 0. 0. 0. 0. 0. 0. 0.</_>
    <_>
      0. 2. 0. 0. 0. 0. 0. 0. 0.</_>
    <_>
      0. 2. 0. 0. 0. 0. 0. 0. 0.</_>
    <_>
      0. 8. 0. 0. 0. 0. 0. 0. 0.</_>
    <_>
      0. 4. 0. 0. 0. 0. 0. 0. 0.</_>
    <_>
      5.00000000e-01 3.41421366e+00 2.22222224e-01 1.23456791e-02
      5.48696611e-03 2.19478112e-04 -2.40853495e-07 -2.43864561e-05
      -1.20579978e-12</_>
    <_>
      70800. 1616. 6.01770222e-01 3.34349662e-01 0. 0. 0. 0. 0.</_>
    <_>
      0. 2. 0. 0. 0. 0. 0. 0. 0.</_>
    <_>
      0. 2. 0. 0. 0. 0. 0. 0. 0.</_>
    <_>
      0. 2. 0. 0. 0. 0. 0. 0. 0.</_>
    <_>
      0. 10. 0. 0. 0. 0. 0. 0. 0.</_>
    <_>
      0. 2. 0. 0. 0. 0. 0. 0. 0.</_>
    <_>
      0. 2. 0. 0. 0. 0. 0. 0. 0.</_>
    <_>
      0. 2. 0. 0. 0. 0. 0. 0. 0.</_>
    <_>
      0. 2. 0. 0. 0. 0. 0. 0. 0.</_>
    <_>
      0. 2. 0. 0. 0. 0. 0. 0. 0.</_>
    <_>
      6. 2.04852810e+01 3.73328179e-01 1.04515970e-01 4.73233638e-03
      1.98045839e-03 5.84379995e-06 5.30659745e-04 -1.61548007e-06</_>
    <_>
      214. 6.26274185e+01 1.89164639e-01 5.82795776e-03 1.44891255e-03
      3.81097634e-05 -1.00964105e-10 3.92058922e-07 -8.95463437e-09</_>
    <_>
      0. 4. 0. 0. 0. 0. 0. 0. 0.</_>
    <_>
      0. 2. 0. 0. 0. 0. 0. 0. 0.</_>
    <_>
      5.00000000e-01 7.41421366e+00 2.22222224e-01 1.23456791e-02
      5.48695400e-03 2.19476526e-04 -2.40850625e-07 -2.43862814e-05
      -4.48201242e-12</_>
    <_>
      0. 2. 0. 0. 0. 0. 0. 0. 0.</_>
    <_>
      8. 4.96568527e+01 6.87500000e-01 4.44878459e-01 1.17883092e-21
      1.20833801e-21 1.33824003e-42 -3.96592973e-23 5.35296013e-43</_>
    <_>
      0. 6. 0. 0. 0. 0. 0. 0. 0.</_>
    <_>
      5.00000000e-01 3.41421366e+00 2.22222224e-01 1.23456791e-02
      5.48695168e-03 2.19476686e-04 -2.40850824e-07 -2.43862978e-05
      -4.89962151e-12</_>
    <_>
      7.50000000e+00 1.22426405e+01 2.24855974e-01 2.36152895e-02
      2.49961187e-04 8.72496239e-05 1.28106583e-08 1.30191447e-05
      -1.38134948e-09</_>
    <_>
      0. 2. 0. 0. 0. 0. 0. 0. 0.</_>
    <_>
      1. 4. 1.66666672e-01 0. 7.85126750e-19 1.53660379e-18
      1.35135832e-37 0. -1.68234916e-36</_>
    <_>
      0. 10. 0. 0. 0. 0. 0. 0. 0.</_>
    <_>
      5.75000000e+01 5.70710678e+01 4.32509065e-01 1.45275444e-01
      5.10315076e-02 3.75279598e-02 1.64228724e-03 1.43037811e-02
      -5.61331353e-06</_>
    <_>
      3.50000000e+00 8.24264050e+00 1.97602853e-01 6.45244308e-03
      3.05388379e-03 2.82280496e-04 2.56116635e-07 2.07701596e-05
      5.56284228e-08</_>
    <_>
      0. 48. 0. 0. 0. 0. 0. 0. 0.</_>
    <_>
      0. 4.82842731e+00 0. 0. 0. 0. 0. 0. 0.</_>
    <_>
      0. 6. 0. 0. 0. 0. 0. 0. 0.</_>
    <_>
      81641. 1716. 5.84757268e-01 3.14163268e-01 9.39247390e-33
      1.40024492e-33 0. -6.72399620e-34 0.</_>
    <_>
      0. 2. 0. 0. 0. 0. 0. 0. 0.</_>
    <_>
      148. 7.34558411e+01 5.02640426e-01 2.19946072e-01 3.33136879e-03
      2.49030325e-03 7.15990518e-06 1.16155401e-03 -4.30168626e-07</_>
    <_>
      2.55000000e+01 5.01837654e+01 1.36388135e+00 1.77391076e+00
      3.85922253e-01 2.52526164e-01 7.83800334e-02 2.85485059e-01
      -8.44114274e-03</_>
    <_>
      7. 1.53137083e+01 4.32134748e-01 1.36463776e-01 4.29798290e-02
      2.56715193e-02 8.51518300e-04 9.33549926e-03 -4.53750326e-05</_>
    <_>
      0. 2. 0. 0. 0. 0. 0. 0. 0.</_>
    <_>
      9. 2.93137093e+01 1.44703555e+00 1.92397571e+00 3.63563108e+00
      3.45052862e+00 1.22212934e+01 4.77923775e+00 -2.86070555e-02</_>
    <_>
      0. 4. 0. 0. 0. 0. 0. 0. 0.</_>
    <_>
      0. 4. 0. 0. 0. 0. 0. 0. 0.</_>
    <_>
      14. 2.04852810e+01 2.83274621e-01 3.50201242e-02 5.85516402e-03
      5.10995800e-04 -8.01814437e-08 -4.67192785e-06 8.80240179e-07</_>
    <_>
      0. 4. 0. 0. 0. 0. 0. 0. 0.</_>
    <_>
      6. 10. 1.80555552e-01 4.82253078e-03 0. 0. 0. 0. 0.</_>
    <_>
      0. 14. 0. 0. 0. 0. 0. 0. 0.</_>
    <_>
      0. 2. 0. 0. 0. 0. 0. 0. 0.</_>
    <_>
      0. 2. 0. 0. 0. 0. 0. 0. 0.</_>
    <_>
      2.65000000e+01 5.58994942e+01 1.17987478e+00 1.29349267e+00
      4.96149480e-01 4.30996329e-01 1.99248180e-01 4.82331008e-01
      4.72859852e-03</_>
    <_>
      80590. 1.85753906e+03 5.88559091e-01 3.18406731e-01 1.42040733e-07
      4.01784490e-08 2.51421084e-15 9.66608305e-09 1.70045866e-15</_>
    <_>
      66432. 1576. 6.12255156e-01 3.47078562e-01 0. 0. 0. 0. 0.</_>
    <_>
      4.84850000e+03 7.31438599e+02 1.66014016e+00 2.61207891e+00
      3.11865234e+00 2.81126213e+00 8.32338333e+00 4.51796627e+00
      -1.06532946e-01</_>
    <_>
      69360. 1564. 5.68055570e-01 2.94909328e-01 0. 0. 0. 0. 0.</_>
    <_>
      5. 9.65685463e+00 2.16444448e-01 1.69578269e-02 9.91188223e-04
      9.33445699e-05 2.35561988e-08 1.06632287e-05 -1.58514766e-08</_>
    <_>
      0. 4. 0. 0. 0. 0. 0. 0. 0.</_>
    <_>
      0. 4. 0. 0. 0. 0. 0. 0. 0.</_>
    <_>
      0. 8. 0. 0. 0. 0. 0. 0. 0.</_>
    <_>
      25. 4.64852829e+01 3.88559997e-01 8.95367861e-02 4.31605652e-02
      1.57217067e-02 3.89134482e-04 4.02779831e-03 1.27651321e-04</_>
    <_>
      16. 2.16568546e+01 3.88834625e-01 1.23550229e-01 1.66912796e-03
      9.55647090e-04 1.20017364e-06 3.03274661e-04 -1.27766100e-07</_>
    <_>
      4.25000000e+01 3.67279205e+01 2.91780263e-01 4.42389473e-02
      1.03370976e-02 2.46774056e-03 1.05191302e-05 2.34771811e-04
      6.68526945e-06</_>
    <_>
      0. 24. 0. 0. 0. 0. 0. 0. 0.</_>
    <_>
      6.85000000e+01 6.56984863e+01 7.69479811e-01 5.18918455e-01
      6.10095970e-02 8.89433455e-03 -5.34202154e-05 -3.64448875e-03
      2.00185081e-04</_>
    <_>
      66. 5.13137093e+01 6.67953432e-01 3.99822444e-01 6.35536062e-03
      1.16907293e-03 7.72574140e-07 -1.10619018e-04 -3.09156599e-06</_>
    <_>
      29. 2.88284264e+01 3.90682727e-01 1.13772348e-01 1.14430375e-02
      5.28470892e-03 4.05912433e-05 1.70050946e-03 -6.42285158e-06</_>
    <_>
      0. 6. 0. 0. 0. 0. 0. 0. 0.</_>
    <_>
      0. 6. 0. 0. 0. 0. 0. 0. 0.</_>
    <_>
      14. 1.44852810e+01 1.81061715e-01 6.37920760e-03 1.27070642e-04
      6.95606650e-06 -1.36530356e-10 -3.91411618e-07 -1.55335689e-10</_>
    <_>
      0. 4. 0. 0. 0. 0. 0. 0. 0.</_>
    <_>
      0. 4. 0. 0. 0. 0. 0. 0. 0.</_>
    <_>
      1. 4.82842731e+00 2.22222224e-01 1.23456791e-02 5.48696797e-03
      2.19478810e-04 -2.40854689e-07 -2.43865343e-05 -1.74123259e-14</_>
    <_>
      4. 8.48528099e+00 2.08333328e-01 1.56250000e-02 1.86366377e-21
      2.93051996e-21 -5.67525878e-42 3.16270569e-22 -3.83255130e-42</_>
    <_>
      2. 6.82842731e+00 2.46527776e-01 2.89472416e-02 3.42416344e-03
      2.59941036e-04 -2.45238994e-07 -4.42260789e-05 8.63281506e-13</_>
    <_>
      1. 1.08284273e+01 2.22222224e-01 1.23456791e-02 5.48696844e-03
      2.19478723e-04 -2.40854547e-07 -2.43865252e-05 3.40652148e-13</_>
    <_>
      1. 4. 1.66666672e-01 8.90592408e-26 3.31766715e-21 3.41932918e-21
      1.15158708e-41 -1.01911971e-33 7.70714155e-44</_>
    <_>
      0. 4. 0. 0. 0. 0. 0. 0. 0.</_>
    <_>
      0. 6. 0. 0. 0. 0. 0. 0. 0.</_>
    <_>
      0. 4. 0. 0. 0. 0. 0. 0. 0.</_>
    <_>
      93. 7.11127014e+01 5.00015497e-01 1.70105234e-01 1.98183814e-03
      1.27754011e-03 1.98627959e-06 4.89449711e-04 4.32427385e-07</_>
    <_>
      9. 4.37989883e+01 2.16399932e+00 4.54700804e+00 1.53936596e+01
      1.52635593e+01 2.33966995e+02 3.24925194e+01 -1.30571112e-01</_>
    <_>
      0. 4. 0. 0. 0. 0. 0. 0. 0.</_>
    <_>
      9897. 1.57890161e+03 4.51178408e+00 2.03194790e+01 1.48687994e+00
      1.47823703e+00 2.19156361e+00 6.66079664e+00 -2.83472764e-04</_>
    <_>
      0. 126. 0. 0. 0. 0. 0. 0. 0.</_>
    <_>
      2.50000000e+00 7.41421366e+00 2.15111107e-01 9.80464183e-03
      2.92191724e-03 1.67315142e-04 -6.26310737e-08 -1.53714445e-05
      -9.88092026e-08</_>
    <_>
      0. 8. 0. 0. 0. 0. 0. 0. 0.</_>
    <_>
      0. 4. 0. 0. 0. 0. 0. 0. 0.</_>
    <_>
      2.35000000e+01 3.27279205e+01 5.54788232e-01 2.65818715e-01
      4.09381203e-02 3.21871527e-02 1.16836664e-03 1.64767392e-02
      7.36959464e-06</_>
    <_>
      18. 3.96568527e+01 8.97628963e-01 7.70701289e-01 2.19560272e-04
      2.42813549e-05 -1.60343894e-09 -1.95214361e-05 -7.56430696e-10</_>
    <_>
      70983. 1632. 6.15041614e-01 3.50498438e-01 0. 0. 0. 0. 0.</_>
    <_>
      0. 4. 0. 0. 0. 0. 0. 0. 0.</_>
    <_>
      95875. 1784. 5.24914384e-01 2.47757331e-01 5.19090453e-31
      5.01557955e-31 0. 2.37627194e-31 0.</_>
    <_>
      1. 4.82842731e+00 2.22222224e-01 1.23456791e-02 5.48696797e-03
      2.19478767e-04 -2.40854604e-07 -2.43865288e-05 -8.70616123e-15</_>
    <_>
      71609. 1620. 5.96854687e-01 3.28457743e-01 0. 0. 0. 0. 0.</_>
    <_>
      0. 4. 0. 0. 0. 0. 0. 0. 0.</_>
    <_>
      0. 4. 0. 0. 0. 0. 0. 0. 0.</_>
    <_>
      37. 3.04852810e+01 3.21850508e-01 7.42523447e-02 3.19999107e-03
      1.57070765e-03 3.51947710e-06 4.27325373e-04 1.16864484e-07</_>
    <_>
      47. 2.93137093e+01 2.11144879e-01 1.63000338e-02 1.09329098e-03
      1.83557975e-04 8.09474798e-08 2.31542363e-05 1.44637360e-08</_>
    <_>
      91450. 1786. 5.60004532e-01 2.85827339e-01 5.97715791e-31
      5.96550970e-31 0. 3.18777282e-31 0.</_>
    <_>
      4.55000000e+01 5.60416298e+01 1.06306851e+00 9.63139355e-01
      2.16461003e-01 7.47705474e-02 7.99957477e-03 3.41465361e-02
      5.14691370e-03</_>
    <_>
      7.50000000e+00 1.14142132e+01 2.05497935e-01 1.48470905e-02
      2.20953909e-04 1.81771957e-05 4.33293540e-11 5.71892720e-08
      1.15115495e-09</_>
    <_>
      0. 16. 0. 0. 0. 0. 0. 0. 0.</_>
    <_>
      74412. 1594. 5.44698238e-01 2.68918365e-01 0. 0. 0. 0. 0.</_>
    <_>
      3. 4.76568527e+01 2.42798358e-01 1.00255720e-02 6.75188936e-03
      8.63906025e-05 6.42578470e-08 2.25869735e-06 -1.49763917e-08</_>
    <_>
      5.00000000e-01 6.24264050e+00 2.22222224e-01 1.23456791e-02
      5.48696704e-03 2.19480396e-04 -2.40857275e-07 -2.43867107e-05
      -1.50679317e-12</_>
    <_>
      1. 4. 1.66666672e-01 3.23117427e-27 1.76338912e-22 2.29788997e-22
      4.48415509e-44 -1.26373449e-35 9.80908925e-45</_>
    <_>
      5.65000000e+01 7.93553391e+01 1.59754455e+00 2.46999550e+00
      1.87110990e-01 1.54729530e-01 2.63212323e-02 2.40394652e-01
      5.74014091e-04</_>
    <_>
      0. 0. 0. 0. 0. 0. 0. 0. 0.</_>
    <_>
      1. 1.28284273e+01 2.22222224e-01 1.23456791e-02 5.48697170e-03
      2.19478941e-04 -2.40855002e-07 -2.43865488e-05 -2.72245269e-12</_>
    <_>
      9.50000000e+00 2.14142132e+01 8.04814458e-01 6.19897246e-01
      2.28942139e-04 6.53318129e-05 6.35411812e-09 2.05534125e-05
      -4.84419349e-09</_>
    <_>
      0. 34. 0. 0. 0. 0. 0. 0. 0.</_>
    <_>
      0. 2.82842708e+00 0. 0. 0. 0. 0. 0. 0.</_>
    <_>
      0. 2. 0. 0. 0. 0. 0. 0. 0.</_>
    <_>
      0. 0. 0. 0. 0. 0. 0. 0. 0.</_>
    <_>
      2. 6. 2.08333328e-01 1.56250000e-02 8.52307051e-19 1.10022301e-18
      8.69474532e-37 1.19288543e-19 -6.15731083e-37</_>
    <_>
      0. 20. 0. 0. 0. 0. 0. 0. 0.</_>
    <_>
      0. 0. 0. 0. 0. 0. 0. 0. 0.</_>
    <_>
      0. 0. 0. 0. 0. 0. 0. 0. 0.</_>
    <_>
      0. 4. 0. 0. 0. 0. 0. 0. 0.</_>
    <_>
      0. 0. 0. 0. 0. 0. 0. 0. 0.</_>
    <_>
      0. 0. 0. 0. 0. 0. 0. 0. 0.</_>
    <_>
      0. 0. 0. 0. 0. 0. 0. 0. 0.</_>
    <_>
      0. 2. 0. 0. 0. 0. 0. 0. 0.</_>
    <_>
      0. 4. 0. 0. 0. 0. 0. 0. 0.</_>
    <_>
      0. 2. 0. 0. 0. 0. 0. 0. 0.</_>
    <_>
      0. 0. 0. 0. 0. 0. 0. 0. 0.</_>
    <_>
      0. 0. 0. 0. 0. 0. 0. 0. 0.</_>
    <_>
      0. 0. 0. 0. 0. 0. 0. 0. 0.</_>
    <_>
      0. 0. 0. 0. 0. 0. 0. 0. 0.</_>
    <_>
      0. 0. 0. 0. 0. 0. 0. 0. 0.</_>
    <_>
      0. 0. 0. 0. 0. 0. 0. 0. 0.</_>
    <_>
      0. 0. 0. 0. 0. 0. 0. 0. 0.</_>
    <_>
      0. 2. 0. 0. 0. 0. 0. 0. 0.</_>
    <_>
      0. 0. 0. 0. 0. 0. 0. 0. 0.</_>
    <_>
      0. 8. 0. 0. 0. 0. 0. 0. 0.</_>
    <_>
      0. 0. 0. 0. 0. 0. 0. 0. 0.</_>
    <_>
      1.02500000e+02 5.23847771e+01 3.29751045e-01 8.09330046e-02
      1.91982090e-03 7.73607986e-04 9.14257896e-07 1.75042951e-04
      -2.30157497e-07</_>
    <_>
      0. 0. 0. 0. 0. 0. 0. 0. 0.</_>
    <_>
      0. 0. 0. 0. 0. 0. 0. 0. 0.</_>
    <_>
      4.95000000e+01 5.80416298e+01 9.86388505e-01 8.56386721e-01
      1.17779858e-01 1.62657890e-02 -3.27560207e-04 -1.03892647e-02
      6.32118725e-04</_>
    <_>
      0. 0. 0. 0. 0. 0. 0. 0. 0.</_>
    <_>
      0. 0. 0. 0. 0. 0. 0. 0. 0.</_>
    <_>
      0. 22. 0. 0. 0. 0. 0. 0. 0.</_>
    <_>
      0. 2. 0. 0. 0. 0. 0. 0. 0.</_>
    <_>
      0. 6. 0. 0. 0. 0. 0. 0. 0.</_>
    <_>
      3.15000000e+01 2.58994942e+01 2.71464527e-01 4.40847091e-02
      1.00750010e-03 3.01743159e-04 1.63757264e-07 6.27851841e-05
      2.93769808e-08</_>
    <_>
      0. 0. 0. 0. 0. 0. 0. 0. 0.</_>
    <_>
      0. 0. 0. 0. 0. 0. 0. 0. 0.</_>
    <_>
      0. 0. 0. 0. 0. 0. 0. 0. 0.</_>
    <_>
      72306. 1610. 5.80188155e-01 3.08840483e-01 0. 0. 0. 0. 0.</_>
    <_>
      0. 0. 0. 0. 0. 0. 0. 0. 0.</_>
    <_>
      0. 0. 0. 0. 0. 0. 0. 0. 0.</_>
    <_>
      0. 0. 0. 0. 0. 0. 0. 0. 0.</_>
    <_>
      0. 0. 0. 0. 0. 0. 0. 0. 0.</_>
    <_>
      0. 2. 0. 0. 0. 0. 0. 0. 0.</_>
    <_>
      0. 0. 0. 0. 0. 0. 0. 0. 0.</_>
    <_>
      0. 0. 0. 0. 0. 0. 0. 0. 0.</_>
    <_>
      0. 0. 0. 0. 0. 0. 0. 0. 0.</_>
    <_>
      54. 6.36568527e+01 6.48703456e-01 3.83235425e-01 9.23757926e-02
      7.82107264e-02 6.64780708e-03 4.84171398e-02 -5.11033659e-06</_>
    <_>
      11. 2.69705620e+01 5.98297000e-01 3.17299843e-01 1.37039199e-02
      8.73364601e-03 9.49293462e-05 3.81292379e-03 -1.08440518e-05</_>
    <_>
      63882. 1586. 6.53659642e-01 3.99493098e-01 0. 0. 0. 0. 0.</_>
    <_>
      62881. 1564. 6.43758297e-01 3.86646986e-01 9.99869852e-31
      9.83883599e-31 0. 6.04052128e-31 0.</_>
    <_>
      0. 2. 0. 0. 0. 0. 0. 0. 0.</_>
    <_>
      0. 0. 0. 0. 0. 0. 0. 0. 0.</_>
    <_>
      0. 10. 0. 0. 0. 0. 0. 0. 0.</_>
    <_>
      4. 1.76568546e+01 3.75000000e-01 1.12847224e-01 1.18988154e-20
      8.00667406e-20 2.43699396e-39 2.65691608e-20 4.10504780e-40</_>
    <_>
      0. 0. 0. 0. 0. 0. 0. 0. 0.</_>
    <_>
      0. 4. 0. 0. 0. 0. 0. 0. 0.</_>
    <_>
      1.55000000e+01 2.90710678e+01 6.62026942e-01 3.97010237e-01
      1.04726776e-01 9.37417597e-02 9.28805955e-03 5.90479039e-02
      3.76035969e-05</_>
    <_>
      0. 0. 0. 0. 0. 0. 0. 0. 0.</_>
    <_>
      0. 0. 0. 0. 0. 0. 0. 0. 0.</_>
    <_>
      50. 8.91127014e+01 2.06441784e+00 4.19913578e+00 2.38850132e-01
      1.79795265e-01 3.71968262e-02 3.41276109e-01 2.14994000e-03</_>
    <_>
      0. 0. 0. 0. 0. 0. 0. 0. 0.</_>
    <_>
      1.25000000e+01 2.10710678e+01 3.54318231e-01 9.04859230e-02
      1.09838862e-02 5.36383269e-03 4.06840954e-05 1.41523208e-03
      6.31278817e-06</_>
    <_>
      0. 0. 0. 0. 0. 0. 0. 0. 0.</_>
    <_>
      14. 3.34558449e+01 1.30539358e+00 1.66300142e+00 1.31036147e-01
      1.21562794e-01 1.53423334e-02 1.55793756e-01 7.48016173e-05</_>
    <_>
      0. 2. 0. 0. 0. 0. 0. 0. 0.</_>
    <_>
      1. 9.65685463e+00 2.50000000e-01 3.47222239e-02 6.82296309e-20
      3.64390120e-20 1.79204073e-39 4.47194074e-21 2.99657868e-40</_>
    <_>
      0. 2. 0. 0. 0. 0. 0. 0. 0.</_>
    <_>
      0. 2. 0. 0. 0. 0. 0. 0. 0.</_>
    <_>
      0. 2. 0. 0. 0. 0. 0. 0. 0.</_>
    <_>
      0. 2. 0. 0. 0. 0. 0. 0. 0.</_>
    <_>
      5.00000000e-01 3.41421366e+00 2.22222224e-01 1.23456791e-02
      5.48697961e-03 2.19479523e-04 -2.40856139e-07 -2.43866143e-05
      2.67417533e-12</_>
    <_>
      5.00000000e-01 3.41421366e+00 2.22222224e-01 1.23456791e-02
      5.48697449e-03 2.19479873e-04 -2.40856593e-07 -2.43866525e-05
      2.04657493e-12</_>
    <_>
      0. 0. 0. 0. 0. 0. 0. 0. 0.</_>
    <_>
      5.55000000e+01 3.75563507e+01 2.37337738e-01 2.01761965e-02
      3.41721158e-03 1.72703876e-04 1.99235455e-08 -5.64997845e-06
      -1.31170523e-07</_>
    <_>
      0. 2.82842708e+00 0. 0. 0. 0. 0. 0. 0.</_>
    <_>
      0. 0. 0. 0. 0. 0. 0. 0. 0.</_>
    <_>
      0. 0. 0. 0. 0. 0. 0. 0. 0.</_>
    <_>
      66251. 1560. 5.98604798e-01 3.30549926e-01 7.14228957e-31
      7.59104817e-31 0. 4.36225954e-31 0.</_>
    <_>
      0. 2. 0. 0. 0. 0. 0. 0. 0.</_>
    <_>
      0. 2. 0. 0. 0. 0. 0. 0. 0.</_>
    <_>
      0. 0. 0. 0. 0. 0. 0. 0. 0.</_>
    <_>
      0. 2. 0. 0. 0. 0. 0. 0. 0.</_>
    <_>
      0. 0. 0. 0. 0. 0. 0. 0. 0.</_>
    <_>
      0. 2. 0. 0. 0. 0. 0. 0. 0.</_>
    <_>
      5.00000000e-01 3.41421366e+00 2.22222224e-01 1.23456791e-02
      5.48696844e-03 2.19478738e-04 -2.40854575e-07 -2.43865252e-05
      1.73279427e-14</_>
    <_>
      0. 0. 0. 0. 0. 0. 0. 0. 0.</_>
    <_>
      3.55000000e+01 4.10710678e+01 5.21682143e-01 2.40884438e-01
      2.52876561e-02 2.11248286e-02 4.88242164e-04 1.02949347e-02
      -3.10771611e-06</_>
    <_>
      0. 0. 0. 0. 0. 0. 0. 0. 0.</_>
    <_>
      0. 0. 0. 0. 0. 0. 0. 0. 0.</_>
    <_>
      0. 0. 0. 0. 0. 0. 0. 0. 0.</_>
    <_>
      0. 0. 0. 0. 0. 0. 0. 0. 0.</_>
    <_>
      2. 6. 2.08333328e-01 1.56250000e-02 1.26521576e-18 1.93977162e-18
      2.85558117e-36 2.34595039e-19 -1.03933648e-36</_>
    <_>
      0. 2. 0. 0. 0. 0. 0. 0. 0.</_>
    <_>
      0. 0. 0. 0. 0. 0. 0. 0. 0.</_>
    <_>
      0. 0. 0. 0. 0. 0. 0. 0. 0.</_>
    <_>
      0. 0. 0. 0. 0. 0. 0. 0. 0.</_>
    <_>
      0. 0. 0. 0. 0. 0. 0. 0. 0.</_>
    <_>
      0. 0. 0. 0. 0. 0. 0. 0. 0.</_>
    <_>
      2. 8.82842731e+00 2.46527776e-01 2.89472416e-02 3.42416437e-03
      2.59941124e-04 -2.45239136e-07 -4.42260935e-05 -1.31846210e-16</_>
    <_>
      5.50000000e+00 8.12132034e+01 2.44594708e-01 2.72969622e-02
      2.04018806e-03 4.80249990e-04 3.78633928e-07 5.69006370e-05
      2.87432727e-07</_>
    <_>
      0. 0. 0. 0. 0. 0. 0. 0. 0.</_>
    <_>
      4. 8.82842731e+00 2.14409724e-01 1.38715580e-02 2.09464296e-03
      2.52227677e-04 1.83233382e-07 2.90838634e-05 -6.08754602e-09</_>
    <_>
      0. 0. 0. 0. 0. 0. 0. 0. 0.</_>
    <_>
      0. 0. 0. 0. 0. 0. 0. 0. 0.</_>
    <_>
      70452. 1574. 5.65946817e-01 2.92517990e-01 0. 0. 0. 0. 0.</_>
    <_>
      0. 2. 0. 0. 0. 0. 0. 0. 0.</_>
    <_>
      0. 0. 0. 0. 0. 0. 0. 0. 0.</_>
    <_>
      0. 0. 0. 0. 0. 0. 0. 0. 0.</_>
    <_>
      74469. 1652. 5.96823275e-01 3.28420252e-01 0. 0. 0. 0. 0.</_>
    <_>
      0. 0. 0. 0. 0. 0. 0. 0. 0.</_>
    <_>
      0. 0. 0. 0. 0. 0. 0. 0. 0.</_>
    <_>
      0. 2.82842708e+00 0. 0. 0. 0. 0. 0. 0.</_>
    <_>
      0. 4. 0. 0. 0. 0. 0. 0. 0.</_>
    <_>
      0. 0. 0. 0. 0. 0. 0. 0. 0.</_>
    <_>
      1.50000000e+00 5.41421366e+00 2.05761313e-01 1.26166400e-02
      1.57586916e-03 2.77662970e-04 1.70442561e-07 2.81789489e-05
      6.84383963e-08</_>
    <_>
      4.35000000e+01 4.47279205e+01 7.04638302e-01 4.49658096e-01
      6.03275374e-02 5.68720177e-02 3.33097344e-03 3.76473777e-02
      4.20233082e-05</_>
    <_>
      0. 0. 0. 0. 0. 0. 0. 0. 0.</_>
    <_>
      2.50000000e+00 8.24264050e+00 3.00444454e-01 5.55053838e-02
      3.62288952e-03 4.67789621e-04 -3.15001571e-08 -5.44258983e-05
      6.08165294e-07</_>
    <_>
      0. 0. 0. 0. 0. 0. 0. 0. 0.</_>
    <_>
      0. 6. 0. 0. 0. 0. 0. 0. 0.</_>
    <_>
      0. 0. 0. 0. 0. 0. 0. 0. 0.</_>
    <_>
      0. 2. 0. 0. 0. 0. 0. 0. 0.</_>
    <_>
      0. 2. 0. 0. 0. 0. 0. 0. 0.</_>
    <_>
      0. 0. 0. 0. 0. 0. 0. 0. 0.</_>
    <_>
      0. 0. 0. 0. 0. 0. 0. 0. 0.</_>
    <_>
      8.50000000e+00 1.30710678e+01 2.06753060e-01 1.29305487e-02
      1.25052826e-03 2.14409214e-04 1.09530646e-07 2.03086129e-05
      1.81406676e-08</_>
    <_>
      0. 2. 0. 0. 0. 0. 0. 0. 0.</_>
    <_>
      6.50000000e+00 1.22426405e+01 2.38001317e-01 2.41227411e-02
      2.36929418e-03 6.32919138e-04 7.56313852e-07 9.38305238e-05
      1.69403904e-07</_>
    <_>
      0. 0. 0. 0. 0. 0. 0. 0. 0.</_>
    <_>
      0. 0. 0. 0. 0. 0. 0. 0. 0.</_>
    <_>
      0. 0. 0. 0. 0. 0. 0. 0. 0.</_>
    <_>
      92875. 1736. 5.09353101e-01 2.31662780e-01 5.45868261e-31
      5.62849782e-31 0. 2.68831444e-31 0.</_>
    <_>
      0. 8. 0. 0. 0. 0. 0. 0. 0.</_>
    <_>
      0. 0. 0. 0. 0. 0. 0. 0. 0.</_>
    <_>
      0. 0. 0. 0. 0. 0. 0. 0. 0.</_>
    <_>
      1.50000000e+00 5.41421366e+00 2.05761313e-01 1.26166400e-02
      1.57586951e-03 2.77662853e-04 1.70442675e-07 2.81789617e-05
      -6.84378634e-08</_>
    <_>
      0. 0. 0. 0. 0. 0. 0. 0. 0.</_>
    <_>
      0. 0. 0. 0. 0. 0. 0. 0. 0.</_>
    <_>
      0. 2. 0. 0. 0. 0. 0. 0. 0.</_>
    <_>
      0. 4. 0. 0. 0. 0. 0. 0. 0.</_>
    <_>
      0. 0. 0. 0. 0. 0. 0. 0. 0.</_>
    <_>
      0. 0. 0. 0. 0. 0. 0. 0. 0.</_>
    <_>
      0. 2. 0. 0. 0. 0. 0. 0. 0.</_>
    <_>
      2. 2.56568546e+01 1.66666672e-01 3.30872245e-22 3.89698101e-16
      4.79305663e-16 2.07057288e-31 -8.53208921e-27 -6.16624002e-33</_>
    <_>
      2.50000000e+00 8.24264050e+00 3.00444454e-01 5.55053838e-02
      3.62288929e-03 4.67789738e-04 -3.15001785e-08 -5.44259201e-05
      6.08165521e-07</_>
    <_>
      0. 2. 0. 0. 0. 0. 0. 0. 0.</_>
    <_>
      0. 0. 0. 0. 0. 0. 0. 0. 0.</_>
    <_>
      85250. 1770. 5.98949194e-01 3.30962330e-01 2.74705362e-34
      4.20137609e-35 0. 9.29624397e-36 0.</_>
    <_>
      0. 4. 0. 0. 0. 0. 0. 0. 0.</_>
    <_>
      0. 4. 0. 0. 0. 0. 0. 0. 0.</_>
    <_>
      0. 2. 0. 0. 0. 0. 0. 0. 0.</_>
    <_>
      0. 6. 0. 0. 0. 0. 0. 0. 0.</_>
    <_>
      0. 0. 0. 0. 0. 0. 0. 0. 0.</_>
    <_>
      0. 2.82842708e+00 0. 0. 0. 0. 0. 0. 0.</_>
    <_>
      0. 2. 0. 0. 0. 0. 0. 0. 0.</_>
    <_>
      0. 2. 0. 0. 0. 0. 0. 0. 0.</_>
    <_>
      0. 6. 0. 0. 0. 0. 0. 0. 0.</_>
    <_>
      0. 0. 0. 0. 0. 0. 0. 0. 0.</_>
    <_>
      0. 0. 0. 0. 0. 0. 0. 0. 0.</_>
    <_>
      8. 1.53137083e+01 3.74565959e-01 1.11400649e-01 1.73460436e-03
      1.74570916e-04 -9.60634239e-08 -5.82660759e-05 -2.63822864e-16</_>
    <_>
      0. 0. 0. 0. 0. 0. 0. 0. 0.</_>
    <_>
      5. 8.82842731e+00 1.72444448e-01 2.75041978e-03 2.34637846e-04
      1.01416799e-06 1.56445794e-11 5.31874775e-08 4.02364457e-19</_>
    <_>
      5.00000000e-01 3.41421366e+00 2.22222224e-01 1.23456791e-02
      5.48696844e-03 2.19478738e-04 -2.40854575e-07 -2.43865270e-05
      8.58783581e-15</_>
    <_>
      0. 16. 0. 0. 0. 0. 0. 0. 0.</_>
    <_>
      0. 2. 0. 0. 0. 0. 0. 0. 0.</_>
    <_>
      0. 2. 0. 0. 0. 0. 0. 0. 0.</_>
    <_>
      0. 0. 0. 0. 0. 0. 0. 0. 0.</_>
    <_>
      0. 2. 0. 0. 0. 0. 0. 0. 0.</_>
    <_>
      5.00000000e-01 6.24264050e+00 2.22222224e-01 1.23456791e-02
      5.48696751e-03 2.19478694e-04 -2.40854462e-07 -2.43865215e-05
      -2.54134550e-13</_>
    <_>
      0. 2. 0. 0. 0. 0. 0. 0. 0.</_>
    <_>
      0. 0. 0. 0. 0. 0. 0. 0. 0.</_>
    <_>
      0. 0. 0. 0. 0. 0. 0. 0. 0.</_>
    <_>
      0. 12. 0. 0. 0. 0. 0. 0. 0.</_>
    <_>
      0. 2. 0. 0. 0. 0. 0. 0. 0.</_>
    <_>
      0. 0. 0. 0. 0. 0. 0. 0. 0.</_>
    <_>
      0. 8. 0. 0. 0. 0. 0. 0. 0.</_>
    <_>
      0. 0. 0. 0. 0. 0. 0. 0. 0.</_>
    <_>
      0. 26. 0. 0. 0. 0. 0. 0. 0.</_>
    <_>
      0. 0. 0. 0. 0. 0. 0. 0. 0.</_>
    <_>
      0. 2. 0. 0. 0. 0. 0. 0. 0.</_>
    <_>
      0. 0. 0. 0. 0. 0. 0. 0. 0.</_>
    <_>
      0. 2. 0. 0. 0. 0. 0. 0. 0.</_>
    <_>
      3.50000000e+00 7.41421366e+00 1.71687722e-01 1.53637584e-03
